%YAML:1.0
---
opencv_ml_svm:
   format: 3
   svmType: C_SVC
   kernel:
      type: RBF
      gamma: 5.0625000000000009e-01
   C: 1.2500000000000000e+01
   term_criteria: { epsilon:1.1920928955078125e-07, iterations:1000 }
   var_count: 6
   class_count: 2
   class_labels: !!opencv-matrix
      rows: 2
      cols: 1
      dt: i
      data: [ 1, 2 ]
   sv_total: 75
   support_vectors:
      - [ 6.22451007e-01, 4.49050009e-01, 5.64791977e-01, 7.84178004e-02,
          5.31891994e-02, 8.09494033e-02 ]
      - [ 8.90281022e-01, 5.88838995e-01, 4.53334987e-01, 8.66162032e-02,
          1.02757998e-01, 7.30246007e-02 ]
      - [ 2.23893002e-01, 3.35552990e-01, 2.23932996e-01, 8.60216022e-02,
          1.14997000e-01, 6.21093996e-02 ]
      - [ 1.62687004e-01, 2.70433009e-01, 2.43430004e-01, 7.69648999e-02,
          9.80542973e-02, 5.47003001e-02 ]
      - [ 3.48989993e-01, 3.45239013e-01, 2.48552993e-01, 1.04065001e-01,
          9.23317000e-02, 6.08655997e-02 ]
      - [ 1.43252003e+00, 5.87697029e-01, 4.75739986e-01, 1.13169998e-01,
          1.21506996e-01, 7.56658018e-02 ]
      - [ 3.19703996e-01, 3.49877000e-01, 2.71183014e-01, 8.12906995e-02,
          8.91629010e-02, 6.45148978e-02 ]
      - [ 1.69049993e-01, 1.89161003e-01, 3.13621014e-01, 5.91257997e-02,
          8.17273036e-02, 5.55440001e-02 ]
      - [ 1.54281005e-01, 1.27077997e-01, 3.82658005e-01, 6.88031986e-02,
          6.33177981e-02, 7.67389983e-02 ]
      - [ 1.70073003e-01, 2.27766007e-01, 3.75079006e-01, 5.78784011e-02,
          9.68493968e-02, 7.60229975e-02 ]
      - [ 1.50766000e-01, 2.31507003e-01, 1.77484006e-01, 5.91300018e-02,
          8.60513002e-02, 4.70316000e-02 ]
      - [ 3.00639987e-01, 1.37192994e-01, 2.15847999e-01, 1.01351000e-01,
          6.74002022e-02, 5.74654005e-02 ]
      - [ 9.09714997e-01, 5.04040003e-01, 6.37124002e-01, 9.38621983e-02,
          6.40864968e-02, 9.47678015e-02 ]
      - [ 3.98797989e-01, 3.78511012e-01, 3.11706007e-01, 7.72171021e-02,
          1.09313004e-01, 6.89345002e-02 ]
      - [ 1.37177005e-01, 2.86837995e-01, 2.11806998e-01, 6.06013015e-02,
          1.25631005e-01, 5.68646006e-02 ]
      - [ 2.38639995e-01, 2.37063006e-01, 3.63173008e-01, 6.79982975e-02,
          8.54336992e-02, 8.08788016e-02 ]
      - [ 2.17959002e-01, 3.03229004e-01, 2.70202994e-01, 7.76842013e-02,
          1.24903001e-01, 7.42477998e-02 ]
      - [ 5.96786976e-01, 5.02812028e-01, 5.80848992e-01, 1.23829998e-01,
          9.93238017e-02, 9.91476998e-02 ]
      - [ 4.25016999e-01, 2.31170997e-01, 2.92425007e-01, 8.77707005e-02,
          6.74822032e-02, 6.46269023e-02 ]
      - [ 9.88627970e-01, 5.11044979e-01, 5.94888985e-01, 1.16980001e-01,
          1.07748002e-01, 1.15078002e-01 ]
      - [ 2.42823005e-01, 2.13363007e-01, 5.04615009e-01, 7.81541020e-02,
          6.80307001e-02, 1.05554998e-01 ]
      - [ 2.88985997e-01, 2.76917011e-01, 3.24782997e-01, 6.24338016e-02,
          7.55610019e-02, 7.27540031e-02 ]
      - [ 3.56198996e-01, 1.67703003e-01, 3.11060011e-01, 9.33078974e-02,
          7.07056969e-02, 7.16411993e-02 ]
      - [ 1.91965997e-01, 2.78477013e-01, 2.31004998e-01, 6.70906976e-02,
          1.12448998e-01, 5.80127984e-02 ]
      - [ 5.36800981e-01, 4.55118001e-01, 3.25626999e-01, 8.88533965e-02,
          1.03979997e-01, 7.19142035e-02 ]
      - [ 2.93969989e-01, 3.52376997e-01, 3.04556012e-01, 7.16682971e-02,
          9.32267010e-02, 6.33506030e-02 ]
      - [ 1.59909993e-01, 2.11440995e-01, 2.37982005e-01, 5.69503009e-02,
          6.89572990e-02, 5.70069999e-02 ]
      - [ 1.48843002e+00, 7.47196972e-01, 8.85206997e-01, 5.25070988e-02,
          5.27045988e-02, 5.06033003e-02 ]
      - [ 1.45705998e-01, 1.59279004e-01, 4.08645988e-01, 7.60027990e-02,
          7.19614998e-02, 7.67021999e-02 ]
      - [ 1.65259004e-01, 2.37030998e-01, 2.41960004e-01, 6.85447976e-02,
          1.03032999e-01, 6.34713992e-02 ]
      - [ 1.59906000e-01, 1.48126006e-01, 2.13963002e-01, 6.22001998e-02,
          6.50923997e-02, 5.16473986e-02 ]
      - [ 2.27740005e-01, 2.34773993e-01, 2.34301999e-01, 9.42663029e-02,
          1.01409003e-01, 5.04130013e-02 ]
      - [ 3.27591985e-01, 2.20754996e-01, 3.05070996e-01, 8.46398994e-02,
          9.15746018e-02, 7.22239017e-02 ]
      - [ 1.98851004e-01, 2.16435999e-01, 2.04426005e-01, 6.77871034e-02,
          7.20094964e-02, 4.96812984e-02 ]
      - [ 1.90018997e-01, 2.11452007e-01, 2.41329998e-01, 7.50832036e-02,
          8.46450999e-02, 6.62652999e-02 ]
      - [ 2.65953994e+00, 1.43772995e+00, 2.20196009e+00, 6.37290999e-02,
          6.38820007e-02, 5.91453984e-02 ]
      - [ 3.71057987e-01, 4.05322999e-01, 2.55277991e-01, 9.62070972e-02,
          1.19571000e-01, 6.20309003e-02 ]
      - [ 2.66029000e-01, 3.18300009e-01, 4.84761000e-01, 7.07973987e-02,
          9.59822014e-02, 9.16905031e-02 ]
      - [ 4.92498010e-01, 3.67298007e-01, 3.02468002e-01, 8.08413029e-02,
          9.35467035e-02, 5.67853004e-02 ]
      - [ 4.45060015e-01, 3.61858994e-01, 4.03005987e-01, 8.08454007e-02,
          9.84032974e-02, 6.36797994e-02 ]
      - [ 2.85122991e-01, 2.04742998e-01, 3.81294996e-01, 8.50683004e-02,
          7.77437016e-02, 8.45412984e-02 ]
      - [ 3.23004991e-01, 2.76517004e-01, 3.23711008e-01, 7.42326006e-02,
          9.18302983e-02, 7.15740994e-02 ]
      - [ 7.92842984e-01, 4.79523987e-01, 6.02820992e-01, 1.44784003e-01,
          1.42691001e-01, 1.14919998e-01 ]
      - [ 9.27214980e-01, 5.39945006e-01, 4.58788007e-01, 1.01199999e-01,
          9.21508968e-02, 7.27958977e-02 ]
      - [ 2.82086015e-01, 2.09090993e-01, 3.18098992e-01, 7.09035993e-02,
          6.76060021e-02, 6.45418987e-02 ]
      - [ 5.77570975e-01, 3.74078006e-01, 4.37442005e-01, 1.07387997e-01,
          1.14083998e-01, 9.48532969e-02 ]
      - [ 2.47839004e-01, 2.26350993e-01, 2.66478986e-01, 7.22237974e-02,
          8.41678977e-02, 7.26014972e-02 ]
      - [ 2.13450000e-01, 1.81961000e-01, 2.66469985e-01, 8.99628028e-02,
          1.04607001e-01, 6.23639002e-02 ]
      - [ 1.75276995e-01, 1.83010995e-01, 2.14652002e-01, 6.04876988e-02,
          7.73257986e-02, 8.09850022e-02 ]
      - [ 3.17052007e-01, 2.18437999e-01, 1.91979006e-01, 8.38062018e-02,
          9.30368975e-02, 6.21014982e-02 ]
      - [ 3.44705999e-01, 2.32587993e-01, 2.57919014e-01, 8.32092986e-02,
          9.21183974e-02, 7.15735033e-02 ]
      - [ 3.37666988e-01, 2.18688995e-01, 2.87375987e-01, 7.11693019e-02,
          7.33380020e-02, 6.53145984e-02 ]
      - [ 7.21256018e-01, 5.32168984e-01, 5.74651003e-01, 9.30510014e-02,
          1.01340003e-01, 9.25322026e-02 ]
      - [ 1.40246004e-01, 1.62483007e-01, 3.11666995e-01, 5.97494990e-02,
          7.84771964e-02, 9.35911983e-02 ]
      - [ 5.26099980e-01, 3.14456999e-01, 2.96573997e-01, 9.31752995e-02,
          8.41062963e-02, 6.33881986e-02 ]
      - [ 4.32659000e-01, 3.42189014e-01, 4.03517991e-01, 9.76850018e-02,
          1.14317998e-01, 9.24606025e-02 ]
      - [ 4.51923996e-01, 2.72713989e-01, 2.43184999e-01, 1.16346002e-01,
          9.07249004e-02, 7.01609030e-02 ]
      - [ 5.07003009e-01, 3.35592002e-01, 3.52559000e-01, 9.56299007e-02,
          9.11927000e-02, 7.41299987e-02 ]
      - [ 1.62444994e-01, 1.40653998e-01, 3.37787002e-01, 7.28377029e-02,
          7.14707971e-02, 7.94119015e-02 ]
      - [ 1.67333007e-01, 1.40125006e-01, 1.39121994e-01, 7.81885982e-02,
          8.38802010e-02, 5.04397005e-02 ]
      - [ 2.33967006e-01, 1.75657004e-01, 3.65011007e-01, 5.86606003e-02,
          6.32086992e-02, 8.52390006e-02 ]
      - [ 2.50541002e-01, 2.98817009e-01, 3.30675006e-01, 8.55240002e-02,
          1.07862003e-01, 7.07430989e-02 ]
      - [ 1.53442994e-01, 1.57693997e-01, 2.08271995e-01, 7.01678023e-02,
          8.04025978e-02, 6.11248985e-02 ]
      - [ 4.09000009e-01, 2.86841989e-01, 3.95267993e-01, 8.42261985e-02,
          9.17143002e-02, 6.98055997e-02 ]
      - [ 4.08078998e-01, 2.73970008e-01, 2.57993996e-01, 7.35701025e-02,
          8.68488997e-02, 5.72877005e-02 ]
      - [ 6.68591976e-01, 4.02806014e-01, 5.10863006e-01, 7.93137029e-02,
          8.18538964e-02, 7.85781965e-02 ]
      - [ 1.29649997e+00, 7.77122974e-01, 9.85266984e-01, 7.60883018e-02,
          8.52006003e-02, 9.48723033e-02 ]
      - [ 2.60408014e-01, 1.95503995e-01, 3.61719012e-01, 6.55030012e-02,
          7.21220970e-02, 6.88788965e-02 ]
      - [ 2.85389990e-01, 2.14588001e-01, 4.32164997e-01, 8.72140974e-02,
          7.90013000e-02, 1.01456001e-01 ]
      - [ 2.65080988e-01, 2.14949995e-01, 2.97592014e-01, 6.85793981e-02,
          9.42630023e-02, 7.68122002e-02 ]
      - [ 1.23715997e-01, 1.41510993e-01, 1.81390002e-01, 5.74285984e-02,
          8.01090971e-02, 5.55449016e-02 ]
      - [ 1.84833005e-01, 1.58865005e-01, 1.67292997e-01, 8.01218003e-02,
          8.31905976e-02, 5.55611998e-02 ]
      - [ 1.51363999e-01, 1.48007005e-01, 1.51814997e-01, 7.72211999e-02,
          8.60821977e-02, 5.79677001e-02 ]
      - [ 2.36116007e-01, 3.78704995e-01, 3.17508012e-01, 8.29176977e-02,
          1.03551999e-01, 6.66430965e-02 ]
      - [ 1.45546004e-01, 1.57738000e-01, 2.59207994e-01, 7.04825968e-02,
          8.22533965e-02, 6.43735006e-02 ]
   decision_functions:
      -
         sv_count: 75
         rho: -1.2808891175484707e+00
         alpha: [ 1.2500000000000000e+01, 1.2500000000000000e+01,
             9.5417487315543115e-01, 1.2500000000000000e+01,
             1.2500000000000000e+01, 6.7574598149430027e+00,
             1.2500000000000000e+01, 1.2500000000000000e+01,
             1.2500000000000000e+01, 1.2500000000000000e+01,
             1.2500000000000000e+01, 1.2500000000000000e+01,
             1.2500000000000000e+01, 1.2500000000000000e+01,
             1.2500000000000000e+01, 1.2500000000000000e+01,
             1.2500000000000000e+01, 1.2500000000000000e+01,
             1.2500000000000000e+01, 1.2500000000000000e+01,
             1.2500000000000000e+01, 1.2500000000000000e+01,
             1.2500000000000000e+01, 1.2500000000000000e+01,
             1.2500000000000000e+01, 1.2500000000000000e+01,
             1.2500000000000000e+01, 3.5510975298322514e+00,
             1.2500000000000000e+01, 1.2500000000000000e+01,
             1.2500000000000000e+01, 1.2500000000000000e+01,
             1.2500000000000000e+01, 1.2500000000000000e+01,
             1.2500000000000000e+01, 1.3212054938236537e-01,
             4.0388266408381641e+00, 1.2500000000000000e+01,
             1.2500000000000000e+01, -1.2500000000000000e+01,
             -1.2500000000000000e+01, -1.2500000000000000e+01,
             -1.2500000000000000e+01, -1.2500000000000000e+01,
             -1.2500000000000000e+01, -1.2500000000000000e+01,
             -1.2500000000000000e+01, -1.2500000000000000e+01,
             -1.2500000000000000e+01, -1.2500000000000000e+01,
             -1.2500000000000000e+01, -1.2488012253057532e+01,
             -1.2500000000000000e+01, -1.2500000000000000e+01,
             -1.2500000000000000e+01, -1.2500000000000000e+01,
             -2.9456671550936986e+00, -1.2500000000000000e+01,
             -1.2500000000000000e+01, -1.2500000000000000e+01,
             -1.2500000000000000e+01, -1.2500000000000000e+01,
             -1.2500000000000000e+01, -1.2500000000000000e+01,
             -1.2500000000000000e+01, -1.2500000000000000e+01,
             -1.2500000000000000e+01, -1.2500000000000000e+01,
             -1.2500000000000000e+01, -1.2500000000000000e+01,
             -1.2500000000000000e+01, -1.2500000000000000e+01,
             -1.2500000000000000e+01, -1.2500000000000000e+01,
             -1.2500000000000000e+01 ]
         index: [ 0, 1, 2, 3, 4, 5, 6, 7, 8, 9, 10, 11, 12, 13, 14, 15,
             16, 17, 18, 19, 20, 21, 22, 23, 24, 25, 26, 27, 28, 29, 30,
             31, 32, 33, 34, 35, 36, 37, 38, 39, 40, 41, 42, 43, 44, 45,
             46, 47, 48, 49, 50, 51, 52, 53, 54, 55, 56, 57, 58, 59, 60,
             61, 62, 63, 64, 65, 66, 67, 68, 69, 70, 71, 72, 73, 74 ]
