%YAML:1.0
---
opencv_ml_svm:
   format: 3
   svmType: C_SVC
   kernel:
      type: RBF
      gamma: 5.0000000000000003e-02
   C: 10000.
   term_criteria: { epsilon:1.1920928955078125e-07 }
   var_count: 177
   class_count: 2
   class_labels: !!opencv-matrix
      rows: 2
      cols: 1
      dt: i
      data: [ 1, 2 ]
   sv_total: 96
   support_vectors:
      - [ 1.19163997e-01, 3.41000990e-03, 2.10799999e-03, 5.33200987e-03,
          2.72801006e-03, 4.21601022e-03, 2.33120006e-02, 1.92199997e-03,
          4.96000983e-03, 1.90340001e-02, 2.81480998e-02, 5.08400984e-03,
          8.18402041e-03, 6.65261000e-02, 8.30181986e-02, 1.26480004e-02,
          2.60401005e-03, 8.30802042e-03, 3.23641002e-02, 8.81021991e-02,
          1.06640002e-02, 2.60401005e-03, 2.66601006e-03, 5.64200990e-03,
          3.08761001e-02, 3.80061008e-02, 1.81040000e-02, 1.98399997e-03,
          1.42600003e-03, 2.16999999e-03, 5.76600991e-03, 1.64299998e-02,
          4.61281016e-02, 5.58000989e-03, 2.72801006e-03, 3.72000999e-04,
          5.89000992e-03, 3.09381001e-02, 5.33820987e-02, 1.32680004e-02,
          1.24000001e-03, 1.73599995e-03, 1.98400002e-02, 5.30720986e-02,
          6.32400997e-03, 1.55000004e-03, 3.10000993e-04, 4.22221012e-02,
          1.49419997e-02, 1.05399999e-03, 1.17800001e-03, 8.18402041e-03,
          2.16999999e-03, 3.10000993e-04, 2.66601006e-03, 2.16999999e-03,
          4.34001005e-04, 2.79001007e-03, 1.19163997e-01, 8.16541985e-02,
          3.90600995e-03, 2.48000002e-03, 6.44800998e-03, 2.91401008e-03,
          4.46400978e-03, 2.38700006e-02, 2.10799999e-03, 5.33200987e-03,
          1.97780002e-02, 2.98221000e-02, 5.64200990e-03, 7.93602038e-03,
          6.81381002e-02, 8.44442025e-02, 1.19660003e-02, 2.79001007e-03,
          9.85801965e-03, 3.45961004e-02, 8.97762030e-02, 1.02300001e-02,
          2.29400001e-03, 3.59600992e-03, 8.06002039e-03, 3.23021002e-02,
          4.10441011e-02, 1.85380001e-02, 1.55000004e-03, 1.48800004e-03,
          2.48000002e-03, 5.95200993e-03, 1.87240001e-02, 4.42061014e-02,
          5.39400987e-03, 1.98399997e-03, 3.10000993e-04, 7.56401988e-03,
          3.36041003e-02, 5.51180989e-02, 1.15940003e-02, 1.61200005e-03,
          2.48000002e-03, 2.15760004e-02, 5.62960990e-02, 7.19201006e-03,
          1.48800004e-03, 3.10000993e-04, 4.43301015e-02, 1.60579998e-02,
          1.36400003e-03, 9.92001966e-04, 7.81201990e-03, 2.16999999e-03,
          3.10000993e-04, 2.54201004e-03, 2.10799999e-03, 4.96000983e-04,
          2.29400001e-03, 8.16541985e-02, 5.71020991e-02, 3.96801019e-03,
          4.21601022e-03, 8.49402044e-03, 3.90600995e-03, 6.44800998e-03,
          2.45520007e-02, 2.35600001e-03, 6.26200996e-03, 2.05220003e-02,
          2.58540995e-02, 4.96000983e-03, 9.79601964e-03, 7.10520968e-02,
          9.02101994e-02, 1.16560003e-02, 4.83600982e-03, 9.23801959e-03,
          3.50921005e-02, 9.36202034e-02, 1.14700003e-02, 1.85999996e-03,
          3.65800993e-03, 8.49402044e-03, 2.31260005e-02, 3.70761007e-02,
          1.71119999e-02, 1.61200005e-03, 1.61200005e-03, 1.98399997e-03,
          5.82800992e-03, 2.15140004e-02, 4.25321013e-02, 5.27000986e-03,
          2.35600001e-03, 1.23999998e-04, 7.06801005e-03, 3.96801010e-02,
          6.05120994e-02, 1.23380003e-02, 1.42600003e-03, 2.79001007e-03,
          2.59160995e-02, 6.90061003e-02, 7.06801005e-03, 1.55000004e-03,
          0., 3.52781005e-02, 1.56239998e-02, 1.17800001e-03,
          8.06002005e-04, 6.20000996e-03, 2.23200000e-03, 1.23999998e-04,
          3.22401011e-03, 2.16999999e-03, 4.34001005e-04, 2.35600001e-03,
          5.71020991e-02 ]
      - [ 1.19846001e-01, 3.59600992e-03, 3.10001010e-03, 5.39400987e-03,
          2.60401005e-03, 5.33200987e-03, 2.18860004e-02, 2.29400001e-03,
          4.96000983e-03, 1.72979999e-02, 2.90160999e-02, 4.77400981e-03,
          8.43202043e-03, 6.66501001e-02, 7.84301981e-02, 1.29580004e-02,
          3.10001010e-03, 8.24602041e-03, 3.08761001e-02, 8.75442028e-02,
          1.18420003e-02, 2.60401005e-03, 2.35600001e-03, 5.89000992e-03,
          3.11241001e-02, 4.01761010e-02, 1.68019999e-02, 2.10799999e-03,
          1.36400003e-03, 2.72801006e-03, 5.95200993e-03, 1.64919998e-02,
          4.50741015e-02, 5.95200993e-03, 1.79799995e-03, 4.96000983e-04,
          5.58000989e-03, 3.28601003e-02, 5.28240986e-02, 1.23380003e-02,
          2.35600001e-03, 2.35600001e-03, 1.87860001e-02, 5.36920987e-02,
          5.70400991e-03, 1.55000004e-03, 2.47999997e-04, 4.10441011e-02,
          1.43219996e-02, 1.73599995e-03, 9.30002017e-04, 7.13001005e-03,
          3.28600989e-03, 5.58000989e-04, 2.41800002e-03, 2.10799999e-03,
          3.72000999e-04, 2.85201008e-03, 1.19846001e-01, 8.14061984e-02,
          4.27801022e-03, 2.41800002e-03, 6.75801001e-03, 2.60401005e-03,
          5.39400987e-03, 2.34360006e-02, 2.04599998e-03, 5.14600985e-03,
          1.87240001e-02, 2.88300999e-02, 5.08400984e-03, 7.68801989e-03,
          6.80141002e-02, 7.94842020e-02, 1.29580004e-02, 3.47200991e-03,
          9.11401957e-03, 3.34801003e-02, 9.12021995e-02, 9.85801965e-03,
          2.16999999e-03, 4.03001020e-03, 7.62601988e-03, 3.27361003e-02,
          4.49501015e-02, 1.69259999e-02, 1.67400006e-03, 1.48800004e-03,
          2.79001007e-03, 7.37801008e-03, 1.90340001e-02, 4.29041013e-02,
          5.95200993e-03, 1.61200005e-03, 5.58000989e-04, 6.01400994e-03,
          3.21161002e-02, 5.62960990e-02, 1.26480004e-02, 2.04599998e-03,
          2.79001007e-03, 2.21340004e-02, 5.61100990e-02, 6.88201003e-03,
          1.24000001e-03, 2.47999997e-04, 4.43301015e-02, 1.52519997e-02,
          1.48800004e-03, 1.24000001e-03, 7.99802039e-03, 2.66601006e-03,
          4.34001005e-04, 3.28600989e-03, 1.73599995e-03, 4.34001005e-04,
          2.91401008e-03, 8.14061984e-02, 5.64200990e-02, 3.78200994e-03,
          4.83600982e-03, 7.99802039e-03, 3.84400995e-03, 6.20000996e-03,
          2.45520007e-02, 2.85201008e-03, 6.20000996e-03, 2.08320003e-02,
          2.55440995e-02, 5.27000986e-03, 1.02920001e-02, 6.94400966e-02,
          8.40722024e-02, 1.23380003e-02, 5.64200990e-03, 9.23801959e-03,
          3.39761004e-02, 9.67201963e-02, 1.17180003e-02, 2.54201004e-03,
          3.65800993e-03, 8.12202040e-03, 2.33120006e-02, 3.67041007e-02,
          1.87860001e-02, 1.79799995e-03, 1.61200005e-03, 2.85201008e-03,
          5.33200987e-03, 2.31260005e-02, 4.06721011e-02, 5.20800985e-03,
          1.98399997e-03, 2.47999997e-04, 5.64200990e-03, 3.67661007e-02,
          6.23720996e-02, 1.33920005e-02, 2.23200000e-03, 1.79799995e-03,
          2.44280007e-02, 7.06800967e-02, 6.63401000e-03, 9.92001966e-04,
          2.47999997e-04, 3.75101008e-02, 1.48799997e-02, 1.24000001e-03,
          1.05399999e-03, 6.20000996e-03, 2.60401005e-03, 4.34001005e-04,
          2.48000002e-03, 1.79799995e-03, 3.72000999e-04, 2.60401005e-03,
          5.64200990e-02 ]
      - [ 1.18854001e-01, 2.97601009e-03, 1.61200005e-03, 5.39400987e-03,
          3.16201011e-03, 5.27000986e-03, 2.09560003e-02, 2.41800002e-03,
          4.96000983e-03, 1.74840000e-02, 3.01941000e-02, 4.09201020e-03,
          9.23801959e-03, 6.04500994e-02, 7.89261982e-02, 1.27100004e-02,
          2.79001007e-03, 8.86601955e-03, 3.32321003e-02, 8.56842026e-02,
          1.08500002e-02, 2.29400001e-03, 3.03801009e-03, 6.20000996e-03,
          2.95740999e-02, 4.23461013e-02, 1.80420000e-02, 2.16999999e-03,
          1.73599995e-03, 1.92199997e-03, 5.76600991e-03, 1.89720001e-02,
          4.47641015e-02, 5.64200990e-03, 1.73599995e-03, 5.58000989e-04,
          6.44800998e-03, 3.13101001e-02, 5.07780984e-02, 1.41979996e-02,
          2.41800002e-03, 2.66601006e-03, 2.10800003e-02, 5.21420985e-02,
          6.32400997e-03, 1.24000001e-03, 2.47999997e-04, 4.42681015e-02,
          1.57479998e-02, 1.17800001e-03, 1.30200002e-03, 7.99802039e-03,
          2.35600001e-03, 3.10000993e-04, 2.60401005e-03, 2.60401005e-03,
          4.34001005e-04, 2.16999999e-03, 1.18854001e-01, 8.20882022e-02,
          4.52600978e-03, 2.66601006e-03, 7.00601004e-03, 3.22401011e-03,
          5.39400987e-03, 2.09560003e-02, 2.54201004e-03, 4.83600982e-03,
          1.82280000e-02, 3.23641002e-02, 5.95200993e-03, 9.85801965e-03,
          5.98920994e-02, 7.76242018e-02, 1.22760003e-02, 3.84400995e-03,
          9.73401964e-03, 3.63321006e-02, 8.76682028e-02, 9.98201966e-03,
          1.85999996e-03, 3.65800993e-03, 7.68801989e-03, 3.28601003e-02,
          4.50741015e-02, 1.84760001e-02, 1.79799995e-03, 1.48800004e-03,
          2.60401005e-03, 6.69601001e-03, 2.02740002e-02, 4.60661016e-02,
          4.71200980e-03, 2.41800002e-03, 3.72000999e-04, 6.13800995e-03,
          3.31081003e-02, 5.09640984e-02, 1.31440004e-02, 2.35600001e-03,
          2.54201004e-03, 2.36220006e-02, 5.39400987e-02, 6.51000999e-03,
          1.55000004e-03, 6.20001010e-05, 4.74301018e-02, 1.64299998e-02,
          1.17800001e-03, 1.11600000e-03, 7.44001009e-03, 2.48000002e-03,
          3.10000993e-04, 2.60401005e-03, 2.35600001e-03, 3.10000993e-04,
          2.91401008e-03, 8.20882022e-02, 5.48080988e-02, 3.41000990e-03,
          4.46400978e-03, 7.99802039e-03, 4.09201020e-03, 6.32400997e-03,
          2.21960004e-02, 3.34800989e-03, 6.01400994e-03, 2.13900004e-02,
          2.80240998e-02, 4.58800979e-03, 9.61001962e-03, 6.52241036e-02,
          8.19642022e-02, 1.23380003e-02, 4.89800982e-03, 9.05201957e-03,
          3.42241004e-02, 9.89521965e-02, 1.10980002e-02, 1.55000004e-03,
          3.72000993e-03, 7.87402038e-03, 2.28160005e-02, 3.71381007e-02,
          1.82280000e-02, 1.48800004e-03, 1.92199997e-03, 2.54201004e-03,
          6.07600994e-03, 2.33120006e-02, 4.29661013e-02, 4.96000983e-03,
          2.35600001e-03, 3.10000993e-04, 6.44800998e-03, 3.85021009e-02,
          6.31780997e-02, 1.37639996e-02, 1.98399997e-03, 2.54201004e-03,
          2.74040997e-02, 6.77661002e-02, 6.88201003e-03, 1.05399999e-03,
          1.86000005e-04, 3.94941010e-02, 1.63679998e-02, 9.92001966e-04,
          6.82001002e-04, 6.75801001e-03, 2.60401005e-03, 1.86000005e-04,
          2.72801006e-03, 2.10799999e-03, 3.72000999e-04, 1.79799995e-03,
          5.48080988e-02 ]
      - [ 1.19411997e-01, 2.97601009e-03, 2.10799999e-03, 5.45600988e-03,
          3.28600989e-03, 4.03001020e-03, 2.05220003e-02, 2.41800002e-03,
          5.45600988e-03, 1.81040000e-02, 3.01941000e-02, 3.72000993e-03,
          9.98201966e-03, 5.95200993e-02, 7.86781982e-02, 1.24000004e-02,
          2.91401008e-03, 9.17601958e-03, 3.40381004e-02, 8.56221989e-02,
          1.14700003e-02, 2.10799999e-03, 3.10001010e-03, 5.95200993e-03,
          2.94500999e-02, 4.06101011e-02, 1.81660000e-02, 2.41800002e-03,
          1.79799995e-03, 2.91401008e-03, 4.89800982e-03, 1.86000001e-02,
          4.48261015e-02, 5.45600988e-03, 2.54201004e-03, 3.72000999e-04,
          6.32400997e-03, 3.18681002e-02, 5.02200983e-02, 1.45699997e-02,
          1.55000004e-03, 2.16999999e-03, 2.08320003e-02, 4.92900982e-02,
          7.13001005e-03, 1.61200005e-03, 1.23999998e-04, 4.65001017e-02,
          1.61199998e-02, 1.79799995e-03, 1.36400003e-03, 7.31601007e-03,
          2.72801006e-03, 4.96000983e-04, 2.79001007e-03, 1.48800004e-03,
          3.72000999e-04, 2.35600001e-03, 1.19411997e-01, 8.23981985e-02,
          4.03001020e-03, 3.22401011e-03, 6.20000996e-03, 3.47200991e-03,
          5.02200983e-03, 1.94680002e-02, 2.35600001e-03, 3.90600995e-03,
          1.89720001e-02, 3.20541002e-02, 5.14600985e-03, 8.99001956e-03,
          6.24960996e-02, 7.65701979e-02, 1.25860004e-02, 3.72000993e-03,
          1.02300001e-02, 3.72621007e-02, 8.66141990e-02, 1.04160002e-02,
          2.04599998e-03, 3.84400995e-03, 6.63401000e-03, 3.31701003e-02,
          4.38961014e-02, 1.93440001e-02, 1.79799995e-03, 1.36400003e-03,
          1.85999996e-03, 7.44001009e-03, 2.00260002e-02, 4.60661016e-02,
          5.51800989e-03, 2.16999999e-03, 3.10000993e-04, 7.06801005e-03,
          3.36661004e-02, 4.98480983e-02, 1.30820004e-02, 2.79001007e-03,
          2.29400001e-03, 2.30020005e-02, 5.36300987e-02, 7.37801008e-03,
          1.55000004e-03, 6.20001010e-05, 4.93520983e-02, 1.57479998e-02,
          1.42600003e-03, 9.92001966e-04, 7.50201987e-03, 2.72801006e-03,
          4.96000983e-04, 2.60401005e-03, 1.85999996e-03, 1.86000005e-04,
          2.79001007e-03, 8.23981985e-02, 5.40640987e-02, 2.97601009e-03,
          4.83600982e-03, 7.81201990e-03, 3.78200994e-03, 5.76600991e-03,
          2.30020005e-02, 3.16201011e-03, 6.07600994e-03, 2.10800003e-02,
          2.65980996e-02, 4.27801022e-03, 9.05201957e-03, 6.67741001e-02,
          8.22122023e-02, 1.27100004e-02, 5.39400987e-03, 8.06002039e-03,
          3.61461006e-02, 9.98822004e-02, 1.02300001e-02, 1.92199997e-03,
          3.90600995e-03, 7.19201006e-03, 2.42420007e-02, 3.51541005e-02,
          1.79180000e-02, 1.85999996e-03, 1.42600003e-03, 2.79001007e-03,
          7.00601004e-03, 2.26920005e-02, 4.35241014e-02, 5.58000989e-03,
          2.66601006e-03, 3.10000993e-04, 5.51800989e-03, 3.88121009e-02,
          6.13800995e-02, 1.54999997e-02, 1.98399997e-03, 1.85999996e-03,
          2.71560997e-02, 6.83240965e-02, 6.88201003e-03, 8.06002005e-04,
          1.86000005e-04, 4.01141010e-02, 1.58719998e-02, 1.36400003e-03,
          6.20000996e-04, 6.63401000e-03, 2.79001007e-03, 2.47999997e-04,
          1.79799995e-03, 2.16999999e-03, 4.96000983e-04, 2.54201004e-03,
          5.40640987e-02 ]
      - [ 1.72049999e-01, 4.21601022e-03, 4.77400981e-03, 6.32400997e-03,
          2.54201004e-03, 5.70400991e-03, 2.09560003e-02, 2.97601009e-03,
          4.89800982e-03, 2.60400996e-02, 4.13541012e-02, 3.22401011e-03,
          6.20000996e-03, 3.54021005e-02, 8.13442022e-02, 1.63059998e-02,
          4.83600982e-03, 7.68801989e-03, 2.98221000e-02, 7.05560967e-02,
          8.24602041e-03, 1.79799995e-03, 2.54201004e-03, 4.58800979e-03,
          2.75900997e-02, 3.55881006e-02, 1.56239998e-02, 2.66601006e-03,
          1.36400003e-03, 2.41800002e-03, 4.77400981e-03, 2.34360006e-02,
          3.58361006e-02, 5.64200990e-03, 2.72801006e-03, 6.20000996e-04,
          3.65800993e-03, 2.92640999e-02, 6.19380996e-02, 1.45699997e-02,
          3.10001010e-03, 4.89800982e-03, 1.36399996e-02, 3.57741006e-02,
          5.51800989e-03, 2.16999999e-03, 7.44001009e-04, 3.31081003e-02,
          1.07880002e-02, 1.61200005e-03, 1.17800001e-03, 5.20800985e-03,
          2.35600001e-03, 5.58000989e-04, 2.91401008e-03, 5.27000986e-03,
          8.68002011e-04, 4.34001023e-03, 1.72049999e-01, 9.35581997e-02,
          5.02200983e-03, 4.96000983e-03, 6.38600998e-03, 2.91401008e-03,
          6.20000996e-03, 2.44280007e-02, 2.60401005e-03, 4.77400981e-03,
          2.82100998e-02, 4.39581014e-02, 3.78200994e-03, 7.44001009e-03,
          4.05481011e-02, 8.68002027e-02, 1.74840000e-02, 6.20000996e-03,
          8.24602041e-03, 3.05661000e-02, 7.66322017e-02, 7.68801989e-03,
          2.04599998e-03, 4.03001020e-03, 6.32400997e-03, 3.44101004e-02,
          3.94941010e-02, 1.71739999e-02, 2.66601006e-03, 1.48800004e-03,
          2.60401005e-03, 5.51800989e-03, 2.43660007e-02, 3.68281007e-02,
          5.76600991e-03, 2.91401008e-03, 3.72000999e-04, 5.76600991e-03,
          3.95561010e-02, 7.27261007e-02, 1.33920005e-02, 2.66601006e-03,
          4.83600982e-03, 1.46319997e-02, 4.31521013e-02, 5.70400991e-03,
          1.85999996e-03, 6.20000996e-04, 3.26121002e-02, 1.06020002e-02,
          1.24000001e-03, 1.61200005e-03, 4.52600978e-03, 2.60401005e-03,
          4.96000983e-04, 3.28600989e-03, 4.71200980e-03, 8.68002011e-04,
          4.58800979e-03, 9.35581997e-02, 2.92640999e-02, 4.27801022e-03,
          6.75801001e-03, 7.13001005e-03, 3.22401011e-03, 7.19201006e-03,
          2.69080997e-02, 3.16201011e-03, 4.77400981e-03, 3.14961001e-02,
          4.76161018e-02, 3.47200991e-03, 8.37002043e-03, 4.87940982e-02,
          8.98381993e-02, 1.93440001e-02, 7.00601004e-03, 9.61001962e-03,
          3.27981003e-02, 8.77922028e-02, 8.86601955e-03, 2.29400001e-03,
          3.53400991e-03, 6.44800998e-03, 3.15581001e-02, 4.28421013e-02,
          1.77940000e-02, 2.54201004e-03, 9.30002017e-04, 2.66601006e-03,
          6.01400994e-03, 2.11420003e-02, 3.51541005e-02, 6.07600994e-03,
          2.66601006e-03, 1.86000005e-04, 5.45600988e-03, 4.45781015e-02,
          8.19021985e-02, 1.27720004e-02, 2.91401008e-03, 4.96000983e-03,
          1.61819998e-02, 5.24520986e-02, 6.32400997e-03, 1.85999996e-03,
          7.44001009e-04, 3.05661000e-02, 1.06020002e-02, 1.05399999e-03,
          1.05399999e-03, 5.08400984e-03, 1.98399997e-03, 6.82001002e-04,
          3.03801009e-03, 5.02200983e-03, 6.20000996e-04, 4.52600978e-03,
          2.92640999e-02 ]
      - [ 1.55867994e-01, 2.97601009e-03, 5.02200983e-03, 6.38600998e-03,
          2.29400001e-03, 6.44800998e-03, 2.03360002e-02, 2.48000002e-03,
          4.46400978e-03, 2.89540999e-02, 4.51981016e-02, 3.03801009e-03,
          6.75801001e-03, 3.85641009e-02, 9.02101994e-02, 1.55619998e-02,
          4.21601022e-03, 7.31601007e-03, 2.41180006e-02, 7.79962018e-02,
          8.68002046e-03, 1.79799995e-03, 2.54201004e-03, 4.65000980e-03,
          2.18860004e-02, 3.12481001e-02, 1.74840000e-02, 2.97601009e-03,
          1.05399999e-03, 2.04599998e-03, 4.27801022e-03, 2.14520004e-02,
          3.49061005e-02, 6.94401003e-03, 3.72000993e-03, 3.72000999e-04,
          3.72000993e-03, 2.49860007e-02, 6.49761036e-02, 1.61819998e-02,
          2.66601006e-03, 5.08400984e-03, 1.25860004e-02, 3.91221009e-02,
          5.76600991e-03, 1.85999996e-03, 7.44001009e-04, 3.78201008e-02,
          1.06020002e-02, 1.48800004e-03, 1.42600003e-03, 7.06801005e-03,
          2.72801006e-03, 3.72000999e-04, 3.78200994e-03, 4.34001023e-03,
          7.44001009e-04, 4.03001020e-03, 1.55867994e-01, 8.62421989e-02,
          3.22401011e-03, 4.89800982e-03, 7.19201006e-03, 3.41000990e-03,
          6.63401000e-03, 2.24440005e-02, 2.35600001e-03, 4.83600982e-03,
          2.96980999e-02, 4.92280982e-02, 3.10001010e-03, 7.37801008e-03,
          4.03001010e-02, 9.77742001e-02, 1.50039997e-02, 6.01400994e-03,
          7.44001009e-03, 2.57920995e-02, 8.38861987e-02, 9.61001962e-03,
          1.73599995e-03, 3.53400991e-03, 5.45600988e-03, 2.64740996e-02,
          3.71381007e-02, 1.68019999e-02, 2.54201004e-03, 1.05399999e-03,
          2.66601006e-03, 5.45600988e-03, 2.25680005e-02, 3.69521007e-02,
          6.32400997e-03, 3.78200994e-03, 3.72000999e-04, 4.46400978e-03,
          3.36661004e-02, 7.30360970e-02, 1.54379997e-02, 2.48000002e-03,
          5.08400984e-03, 1.45699997e-02, 4.50121015e-02, 7.31601007e-03,
          1.24000001e-03, 8.68002011e-04, 3.72621007e-02, 1.24000004e-02,
          1.42600003e-03, 1.55000004e-03, 6.51000999e-03, 2.66601006e-03,
          3.72000999e-04, 3.78200994e-03, 4.34001023e-03, 3.72000999e-04,
          3.90600995e-03, 8.62421989e-02, 2.13900004e-02, 2.72801006e-03,
          6.75801001e-03, 6.57201000e-03, 2.66601006e-03, 8.24602041e-03,
          2.51720995e-02, 2.72801006e-03, 6.38600998e-03, 3.21161002e-02,
          5.36920987e-02, 3.34800989e-03, 6.69601001e-03, 5.02200983e-02,
          1.05648004e-01, 1.65539999e-02, 6.94401003e-03, 7.25401007e-03,
          2.83340998e-02, 9.28762034e-02, 1.00440001e-02, 1.73599995e-03,
          3.28600989e-03, 5.82800992e-03, 2.67220996e-02, 3.83781008e-02,
          1.71739999e-02, 1.67400006e-03, 1.24000001e-03, 2.48000002e-03,
          5.45600988e-03, 2.20100004e-02, 3.46581005e-02, 6.75801001e-03,
          3.28600989e-03, 3.72000999e-04, 4.96000983e-03, 3.81921008e-02,
          8.16541985e-02, 1.38259996e-02, 2.23200000e-03, 4.46400978e-03,
          1.53759997e-02, 5.43740988e-02, 7.31601007e-03, 1.55000004e-03,
          5.58000989e-04, 3.89361009e-02, 1.13460002e-02, 1.73599995e-03,
          1.55000004e-03, 6.51000999e-03, 2.10799999e-03, 4.34001005e-04,
          3.65800993e-03, 4.03001020e-03, 6.20000996e-04, 3.72000993e-03,
          2.13900004e-02 ]
      - [ 4.09201011e-02, 4.27801022e-03, 6.69601001e-03, 1.20900003e-02,
          5.89000992e-03, 1.12840002e-02, 3.28601003e-02, 4.58800979e-03,
          1.25860004e-02, 3.66421007e-02, 3.76961008e-02, 5.64200990e-03,
          8.86601955e-03, 4.88560982e-02, 8.68621990e-02, 2.07700003e-02,
          5.64200990e-03, 1.13460002e-02, 2.80240998e-02, 5.64820990e-02,
          1.08500002e-02, 2.66601006e-03, 3.10001010e-03, 8.37002043e-03,
          2.64120996e-02, 2.82100998e-02, 1.76700000e-02, 2.35600001e-03,
          1.92199997e-03, 4.65000980e-03, 9.85801965e-03, 2.46760007e-02,
          4.19741012e-02, 9.42401960e-03, 3.84400995e-03, 2.47999997e-04,
          8.12202040e-03, 3.96181010e-02, 4.01141010e-02, 1.76080000e-02,
          2.85201008e-03, 3.53400991e-03, 2.84580998e-02, 6.46660998e-02,
          8.06002039e-03, 2.23200000e-03, 3.72000999e-04, 4.04861011e-02,
          1.50659997e-02, 1.67400006e-03, 1.85999996e-03, 6.57201000e-03,
          3.22401011e-03, 1.86000005e-04, 3.47200991e-03, 2.41800002e-03,
          3.72000999e-04, 3.34800989e-03, 4.09201011e-02, 4.42061014e-02,
          5.39400987e-03, 4.27801022e-03, 1.02300001e-02, 5.45600988e-03,
          9.17601958e-03, 3.42241004e-02, 3.10001010e-03, 8.30802042e-03,
          3.31701003e-02, 4.90420982e-02, 5.70400991e-03, 7.44001009e-03,
          4.70581017e-02, 9.59762037e-02, 1.37019996e-02, 4.65000980e-03,
          9.61001962e-03, 2.60400996e-02, 7.17960969e-02, 6.63401000e-03,
          1.67400006e-03, 5.95200993e-03, 8.55602045e-03, 3.03801000e-02,
          3.22401002e-02, 1.30820004e-02, 1.24000001e-03, 7.44001009e-04,
          2.97601009e-03, 8.92801955e-03, 2.23200005e-02, 4.63141017e-02,
          5.51800989e-03, 2.72801006e-03, 3.72000999e-04, 7.13001005e-03,
          5.12740985e-02, 4.48881015e-02, 1.23380003e-02, 2.41800002e-03,
          1.98399997e-03, 2.94500999e-02, 7.26640970e-02, 6.88201003e-03,
          1.05399999e-03, 3.72000999e-04, 4.00521010e-02, 1.20900003e-02,
          9.92001966e-04, 6.82001002e-04, 5.64200990e-03, 1.85999996e-03,
          2.47999997e-04, 1.98399997e-03, 2.04599998e-03, 3.10000993e-04,
          1.67400006e-03, 4.42061014e-02, 3.36661004e-02, 3.41000990e-03,
          4.27801022e-03, 6.82001002e-03, 3.90600995e-03, 8.12202040e-03,
          2.75280997e-02, 2.85201008e-03, 6.75801001e-03, 3.94941010e-02,
          4.76161018e-02, 6.07600994e-03, 1.01060001e-02, 5.11500984e-02,
          9.80841964e-02, 1.47559997e-02, 5.27000986e-03, 1.03540001e-02,
          3.01321000e-02, 7.35320970e-02, 8.43202043e-03, 1.36400003e-03,
          3.41000990e-03, 8.61802045e-03, 2.86440998e-02, 3.35421003e-02,
          1.58719998e-02, 1.48800004e-03, 7.44001009e-04, 2.35600001e-03,
          7.75001990e-03, 2.21340004e-02, 3.88121009e-02, 5.76600991e-03,
          1.73599995e-03, 1.86000005e-04, 6.69601001e-03, 5.49940988e-02,
          5.11500984e-02, 1.27720004e-02, 2.91401008e-03, 2.04599998e-03,
          2.44900007e-02, 8.00421983e-02, 7.68801989e-03, 1.61200005e-03,
          0., 4.00521010e-02, 1.37019996e-02, 8.06002005e-04,
          5.58000989e-04, 6.82001002e-03, 1.92199997e-03, 1.23999998e-04,
          2.91401008e-03, 2.29400001e-03, 1.86000005e-04, 1.92199997e-03,
          3.36661004e-02 ]
      - [ 3.27361003e-02, 4.03001020e-03, 7.13001005e-03, 1.03540001e-02,
          3.72000993e-03, 1.10360002e-02, 2.44280007e-02, 4.27801022e-03,
          9.85801965e-03, 4.03001010e-02, 4.52601016e-02, 4.15401021e-03,
          1.10980002e-02, 4.54461016e-02, 8.52501988e-02, 2.18860004e-02,
          7.44001009e-03, 9.73401964e-03, 2.61640996e-02, 6.34260997e-02,
          1.02920001e-02, 3.22401011e-03, 3.41000990e-03, 1.01680001e-02,
          2.66600996e-02, 2.72800997e-02, 1.77940000e-02, 1.67400006e-03,
          1.48800004e-03, 4.52600978e-03, 9.05201957e-03, 2.57300995e-02,
          3.99901010e-02, 8.24602041e-03, 2.79001007e-03, 3.72000999e-04,
          9.54801962e-03, 4.41441014e-02, 4.32141013e-02, 1.60579998e-02,
          3.16201011e-03, 2.48000002e-03, 2.87060998e-02, 6.42321035e-02,
          1.09120002e-02, 1.55000004e-03, 3.10000993e-04, 3.68281007e-02,
          1.68639999e-02, 2.35600001e-03, 1.42600003e-03, 7.37801008e-03,
          2.66601006e-03, 1.86000005e-04, 3.53400991e-03, 3.28600989e-03,
          7.44001009e-04, 3.90600995e-03, 3.27361003e-02, 3.34181003e-02,
          5.33200987e-03, 5.39400987e-03, 1.00440001e-02, 5.27000986e-03,
          8.30802042e-03, 2.88300999e-02, 2.29400001e-03, 7.93602038e-03,
          3.58981006e-02, 4.94760983e-02, 4.83600982e-03, 7.81201990e-03,
          4.55081016e-02, 9.90142003e-02, 1.46319997e-02, 5.51800989e-03,
          8.92801955e-03, 2.44900007e-02, 8.02282020e-02, 5.82800992e-03,
          6.20000996e-04, 3.78200994e-03, 7.87402038e-03, 2.53580995e-02,
          2.57300995e-02, 1.37639996e-02, 1.55000004e-03, 6.20000996e-04,
          2.85201008e-03, 9.30001959e-03, 2.48620007e-02, 4.44541015e-02,
          5.89000992e-03, 2.54201004e-03, 1.86000005e-04, 7.99802039e-03,
          4.84220982e-02, 5.49320988e-02, 1.31440004e-02, 2.04599998e-03,
          1.61200005e-03, 3.10001001e-02, 7.73762017e-02, 7.44001009e-03,
          1.24000001e-03, 4.34001005e-04, 4.24701013e-02, 1.36399996e-02,
          1.42600003e-03, 4.96000983e-04, 6.38600998e-03, 2.54201004e-03,
          1.86000005e-04, 3.28600989e-03, 1.73599995e-03, 3.10000993e-04,
          1.73599995e-03, 3.34181003e-02, 2.61640996e-02, 3.28600989e-03,
          3.90600995e-03, 7.25401007e-03, 3.96801019e-03, 9.54801962e-03,
          2.67220996e-02, 2.60401005e-03, 5.64200990e-03, 3.91221009e-02,
          5.54900989e-02, 4.27801022e-03, 8.06002039e-03, 4.52601016e-02,
          9.98822004e-02, 1.53759997e-02, 5.27000986e-03, 8.74202047e-03,
          2.72180997e-02, 7.42760971e-02, 6.88201003e-03, 9.30002017e-04,
          3.84400995e-03, 7.99802039e-03, 2.85200998e-02, 3.42861004e-02,
          1.52519997e-02, 8.06002005e-04, 6.20000996e-04, 3.59600992e-03,
          6.88201003e-03, 2.55440995e-02, 3.55881006e-02, 5.89000992e-03,
          2.72801006e-03, 2.47999997e-04, 7.56401988e-03, 4.54461016e-02,
          5.89000992e-02, 1.39499996e-02, 1.67400006e-03, 2.10799999e-03,
          3.19921002e-02, 8.10962021e-02, 7.62601988e-03, 9.92001966e-04,
          3.72000999e-04, 3.63321006e-02, 1.63059998e-02, 9.92001966e-04,
          9.92001966e-04, 7.37801008e-03, 2.72801006e-03, 3.10000993e-04,
          3.10001010e-03, 1.98399997e-03, 3.10000993e-04, 2.04599998e-03,
          2.61640996e-02 ]
      - [ 3.21781002e-02, 2.97601009e-03, 5.82800992e-03, 1.05400002e-02,
          5.08400984e-03, 1.17180003e-02, 2.64120996e-02, 5.64200990e-03,
          1.37019996e-02, 3.73241007e-02, 3.68901007e-02, 3.84400995e-03,
          1.08500002e-02, 4.62521017e-02, 8.74821991e-02, 2.15760004e-02,
          6.26200996e-03, 1.01060001e-02, 2.38080006e-02, 5.85900992e-02,
          1.33920005e-02, 3.65800993e-03, 4.65000980e-03, 1.01060001e-02,
          2.53580995e-02, 2.89540999e-02, 1.63059998e-02, 2.35600001e-03,
          2.29400001e-03, 4.34001023e-03, 1.01060001e-02, 2.62880996e-02,
          3.58361006e-02, 8.12202040e-03, 3.28600989e-03, 3.72000999e-04,
          1.04160002e-02, 3.93701009e-02, 4.22841012e-02, 1.79180000e-02,
          2.66601006e-03, 2.54201004e-03, 3.32321003e-02, 6.70221001e-02,
          1.07880002e-02, 2.41800002e-03, 3.72000999e-04, 3.83161008e-02,
          1.69259999e-02, 2.29400001e-03, 2.60401005e-03, 7.81201990e-03,
          2.85201008e-03, 1.23999998e-04, 4.09201020e-03, 2.79001007e-03,
          2.47999997e-04, 3.84400995e-03, 3.21781002e-02, 3.34181003e-02,
          5.27000986e-03, 4.77400981e-03, 8.92801955e-03, 3.84400995e-03,
          9.05201957e-03, 2.45520007e-02, 3.22401011e-03, 7.87402038e-03,
          3.44721004e-02, 5.53040989e-02, 4.96000983e-03, 8.12202040e-03,
          4.43301015e-02, 9.38682035e-02, 1.41979996e-02, 4.46400978e-03,
          8.92801955e-03, 2.23200005e-02, 7.82442018e-02, 8.06002039e-03,
          1.30200002e-03, 4.58800979e-03, 8.92801955e-03, 2.72180997e-02,
          3.00701000e-02, 1.40119996e-02, 1.48800004e-03, 6.82001002e-04,
          3.41000990e-03, 9.67201963e-03, 2.59780996e-02, 4.14161012e-02,
          4.89800982e-03, 1.73599995e-03, 4.96000983e-04, 8.37002043e-03,
          4.53841016e-02, 5.61720990e-02, 1.25240004e-02, 1.73599995e-03,
          1.17800001e-03, 3.17441002e-02, 8.12821984e-02, 9.54801962e-03,
          1.61200005e-03, 3.10000993e-04, 4.22221012e-02, 1.32680004e-02,
          1.42600003e-03, 1.05399999e-03, 6.13800995e-03, 1.98399997e-03,
          1.86000005e-04, 2.91401008e-03, 1.85999996e-03, 2.47999997e-04,
          2.41800002e-03, 3.34181003e-02, 2.53580995e-02, 3.16201011e-03,
          4.71200980e-03, 5.82800992e-03, 3.47200991e-03, 8.18402041e-03,
          2.49860007e-02, 2.23200000e-03, 7.81201990e-03, 3.58981006e-02,
          5.66060990e-02, 4.34001023e-03, 8.12202040e-03, 4.58181016e-02,
          9.78982002e-02, 1.51899997e-02, 4.77400981e-03, 1.09740002e-02,
          2.91400999e-02, 7.71282017e-02, 9.36201960e-03, 1.24000001e-03,
          3.34800989e-03, 8.18402041e-03, 2.79620998e-02, 3.41621004e-02,
          1.61199998e-02, 1.05399999e-03, 1.05399999e-03, 2.97601009e-03,
          6.63401000e-03, 2.41180006e-02, 3.46581005e-02, 6.69601001e-03,
          1.36400003e-03, 1.86000005e-04, 8.30802042e-03, 5.04680984e-02,
          5.94580993e-02, 1.28960004e-02, 1.55000004e-03, 1.61200005e-03,
          2.96980999e-02, 8.35141987e-02, 8.80401954e-03, 1.36400003e-03,
          6.20001010e-05, 3.40381004e-02, 1.63679998e-02, 1.30200002e-03,
          1.17800001e-03, 7.31601007e-03, 1.67400006e-03, 3.10000993e-04,
          3.22401011e-03, 1.73599995e-03, 1.23999998e-04, 2.23200000e-03,
          2.53580995e-02 ]
      - [ 9.31861997e-02, 3.59600992e-03, 4.96000983e-03, 5.51800989e-03,
          3.90600995e-03, 7.62601988e-03, 2.28160005e-02, 4.03001020e-03,
          7.13001005e-03, 3.13101001e-02, 3.93701009e-02, 2.66601006e-03,
          6.44800998e-03, 3.01941000e-02, 5.80940992e-02, 1.73599999e-02,
          3.72000993e-03, 6.20000996e-03, 2.75280997e-02, 6.32401034e-02,
          8.92801955e-03, 3.10001010e-03, 3.41000990e-03, 6.20000996e-03,
          2.15760004e-02, 4.47021015e-02, 1.65539999e-02, 3.10001010e-03,
          1.92199997e-03, 3.16201011e-03, 5.64200990e-03, 2.29400005e-02,
          5.64200990e-02, 5.70400991e-03, 3.10001010e-03, 1.17800001e-03,
          7.50201987e-03, 3.14961001e-02, 4.92280982e-02, 1.51899997e-02,
          2.23200000e-03, 1.92199997e-03, 2.76520997e-02, 6.11940995e-02,
          8.30802042e-03, 9.92001966e-04, 6.20000996e-04, 6.55340999e-02,
          1.74219999e-02, 2.79001007e-03, 1.17800001e-03, 6.57201000e-03,
          3.10001010e-03, 7.44001009e-04, 3.84400995e-03, 1.85999996e-03,
          8.68002011e-04, 4.52600978e-03, 9.31861997e-02, 5.12740985e-02,
          4.34001023e-03, 5.58000989e-03, 6.63401000e-03, 4.21601022e-03,
          7.75001990e-03, 2.51720995e-02, 3.28600989e-03, 7.81201990e-03,
          3.16821001e-02, 4.10441011e-02, 3.28600989e-03, 6.38600998e-03,
          3.51541005e-02, 6.08840995e-02, 1.73599999e-02, 4.83600982e-03,
          6.82001002e-03, 2.76520997e-02, 6.82621002e-02, 8.12202040e-03,
          3.65800993e-03, 3.34800989e-03, 6.38600998e-03, 2.22580004e-02,
          4.47021015e-02, 1.64299998e-02, 3.22401011e-03, 1.73599995e-03,
          2.79001007e-03, 7.50201987e-03, 2.39940006e-02, 5.67920990e-02,
          5.64200990e-03, 3.22401011e-03, 1.05399999e-03, 7.13001005e-03,
          3.30461003e-02, 5.27620986e-02, 1.48179997e-02, 2.48000002e-03,
          2.16999999e-03, 2.78380997e-02, 6.42940998e-02, 9.92001966e-03,
          1.42600003e-03, 6.20000996e-04, 6.77661002e-02, 1.71739999e-02,
          2.66601006e-03, 1.36400003e-03, 7.50201987e-03, 2.35600001e-03,
          6.82001002e-04, 4.46400978e-03, 2.04599998e-03, 7.44001009e-04,
          3.72000993e-03, 5.12740985e-02, 5.05920984e-02, 4.89800982e-03,
          7.31601007e-03, 7.06801005e-03, 4.15401021e-03, 8.12202040e-03,
          1.97780002e-02, 4.15401021e-03, 8.92801955e-03, 3.03801000e-02,
          3.75101008e-02, 4.52600978e-03, 9.17601958e-03, 3.23641002e-02,
          6.18760996e-02, 1.50659997e-02, 6.69601001e-03, 8.74202047e-03,
          2.98221000e-02, 6.74560964e-02, 9.30001959e-03, 3.65800993e-03,
          4.34001023e-03, 7.19201006e-03, 2.24440005e-02, 3.85641009e-02,
          1.63059998e-02, 2.91401008e-03, 2.10799999e-03, 4.34001023e-03,
          7.68801989e-03, 2.50480995e-02, 5.12120984e-02, 4.89800982e-03,
          2.79001007e-03, 1.24000001e-03, 8.06002039e-03, 3.52781005e-02,
          5.48080988e-02, 1.44459996e-02, 2.60401005e-03, 2.41800002e-03,
          2.96980999e-02, 7.02461004e-02, 1.00440001e-02, 1.85999996e-03,
          6.20000996e-04, 5.98920994e-02, 1.69259999e-02, 3.10001010e-03,
          1.55000004e-03, 6.51000999e-03, 2.54201004e-03, 3.10000993e-04,
          3.96801019e-03, 2.72801006e-03, 7.44001009e-04, 3.96801019e-03,
          5.05920984e-02 ]
      - [ 9.13261995e-02, 2.79001007e-03, 4.03001020e-03, 6.63401000e-03,
          3.65800993e-03, 8.12202040e-03, 2.05220003e-02, 3.53400991e-03,
          7.75001990e-03, 3.08761001e-02, 3.85641009e-02, 3.47200991e-03,
          7.06801005e-03, 3.11861001e-02, 5.75360991e-02, 1.65539999e-02,
          4.89800982e-03, 5.02200983e-03, 2.45520007e-02, 6.29300997e-02,
          7.37801008e-03, 2.72801006e-03, 4.34001023e-03, 5.58000989e-03,
          2.09560003e-02, 4.49501015e-02, 1.70499999e-02, 3.34800989e-03,
          1.42600003e-03, 2.79001007e-03, 7.44001009e-03, 2.43660007e-02,
          5.97060993e-02, 6.26200996e-03, 3.72000993e-03, 9.92001966e-04,
          6.01400994e-03, 3.61461006e-02, 4.96000983e-02, 1.45079996e-02,
          2.10799999e-03, 2.04599998e-03, 2.75280997e-02, 6.11940995e-02,
          9.98201966e-03, 1.92199997e-03, 6.82001002e-04, 6.47900999e-02,
          1.83520000e-02, 2.23200000e-03, 1.36400003e-03, 6.75801001e-03,
          2.91401008e-03, 6.20000996e-04, 3.16201011e-03, 1.92199997e-03,
          6.20000996e-04, 3.78200994e-03, 9.13261995e-02, 5.02820984e-02,
          4.27801022e-03, 4.15401021e-03, 7.93602038e-03, 3.78200994e-03,
          8.30802042e-03, 2.26300005e-02, 3.78200994e-03, 8.74202047e-03,
          3.08141001e-02, 4.19741012e-02, 4.40200977e-03, 7.50201987e-03,
          3.15581001e-02, 5.98920994e-02, 1.68639999e-02, 5.51800989e-03,
          5.82800992e-03, 2.67840996e-02, 6.55961037e-02, 8.68002046e-03,
          2.35600001e-03, 4.03001020e-03, 6.44800998e-03, 2.32500006e-02,
          4.43921015e-02, 1.58099998e-02, 3.10001010e-03, 1.42600003e-03,
          3.53400991e-03, 7.50201987e-03, 2.60400996e-02, 5.93340993e-02,
          6.13800995e-03, 3.28600989e-03, 9.30002017e-04, 7.13001005e-03,
          3.67041007e-02, 5.25760986e-02, 1.62439998e-02, 2.29400001e-03,
          1.85999996e-03, 2.81480998e-02, 6.49140999e-02, 1.07260002e-02,
          1.79799995e-03, 7.44001009e-04, 6.55961037e-02, 1.87860001e-02,
          2.04599998e-03, 1.42600003e-03, 6.01400994e-03, 3.34800989e-03,
          6.20000996e-04, 3.96801019e-03, 1.73599995e-03, 9.92001966e-04,
          4.09201020e-03, 5.02820984e-02, 4.97240983e-02, 5.08400984e-03,
          6.51000999e-03, 9.17601958e-03, 3.65800993e-03, 8.30802042e-03,
          2.12660003e-02, 4.40200977e-03, 9.05201957e-03, 2.70940997e-02,
          3.51541005e-02, 5.27000986e-03, 8.61802045e-03, 3.36661004e-02,
          6.09460995e-02, 1.56859998e-02, 6.01400994e-03, 7.93602038e-03,
          2.70320997e-02, 6.69600964e-02, 9.85801965e-03, 2.60401005e-03,
          4.40200977e-03, 7.50201987e-03, 2.20100004e-02, 4.05481011e-02,
          1.63679998e-02, 3.16201011e-03, 1.67400006e-03, 3.53400991e-03,
          8.55602045e-03, 2.57920995e-02, 5.24520986e-02, 4.83600982e-03,
          3.10001010e-03, 1.24000001e-03, 7.87402038e-03, 3.85021009e-02,
          5.62960990e-02, 1.51899997e-02, 2.60401005e-03, 1.79799995e-03,
          2.95120999e-02, 7.12381005e-02, 1.12840002e-02, 2.23200000e-03,
          4.34001005e-04, 5.87760992e-02, 1.89100001e-02, 1.85999996e-03,
          1.48800004e-03, 6.51000999e-03, 2.66601006e-03, 4.96000983e-04,
          3.22401011e-03, 2.16999999e-03, 6.20000996e-04, 4.03001020e-03,
          4.97240983e-02 ]
      - [ 9.18842033e-02, 2.97601009e-03, 3.84400995e-03, 5.76600991e-03,
          3.47200991e-03, 7.37801008e-03, 2.25060005e-02, 2.97601009e-03,
          8.43202043e-03, 3.14961001e-02, 3.60841006e-02, 3.34800989e-03,
          5.89000992e-03, 3.21781002e-02, 5.66060990e-02, 1.71119999e-02,
          3.84400995e-03, 6.57201000e-03, 2.58540995e-02, 6.44801036e-02,
          7.81201990e-03, 2.54201004e-03, 3.78200994e-03, 5.89000992e-03,
          2.08320003e-02, 4.22841012e-02, 1.69259999e-02, 3.47200991e-03,
          1.30200002e-03, 2.60401005e-03, 8.80401954e-03, 2.57300995e-02,
          5.75360991e-02, 6.94401003e-03, 2.41800002e-03, 9.92001966e-04,
          6.88201003e-03, 3.37281004e-02, 4.82980981e-02, 1.64919998e-02,
          2.10799999e-03, 2.16999999e-03, 2.69700997e-02, 6.36121035e-02,
          9.36201960e-03, 1.67400006e-03, 5.58000989e-04, 6.64021000e-02,
          1.69259999e-02, 2.04599998e-03, 1.24000001e-03, 6.88201003e-03,
          3.72000993e-03, 8.06002005e-04, 3.22401011e-03, 1.73599995e-03,
          8.06002005e-04, 3.22401011e-03, 9.18842033e-02, 5.09640984e-02,
          3.59600992e-03, 5.14600985e-03, 7.68801989e-03, 4.15401021e-03,
          7.68801989e-03, 2.41800006e-02, 3.41000990e-03, 8.80401954e-03,
          3.15581001e-02, 4.03001010e-02, 3.84400995e-03, 6.32400997e-03,
          3.35421003e-02, 5.82180992e-02, 1.68019999e-02, 5.14600985e-03,
          6.44800998e-03, 2.74660997e-02, 6.68981001e-02, 8.49402044e-03,
          2.97601009e-03, 4.71200980e-03, 7.37801008e-03, 2.30640005e-02,
          4.23461013e-02, 1.65539999e-02, 3.28600989e-03, 1.17800001e-03,
          2.48000002e-03, 8.43202043e-03, 2.63500996e-02, 5.83420992e-02,
          7.56401988e-03, 2.41800002e-03, 9.92001966e-04, 7.19201006e-03,
          3.41001004e-02, 5.33820987e-02, 1.58719998e-02, 2.54201004e-03,
          1.92199997e-03, 2.65980996e-02, 6.72080964e-02, 1.02920001e-02,
          1.98399997e-03, 6.20000996e-04, 6.65261000e-02, 1.69259999e-02,
          2.10799999e-03, 1.24000001e-03, 6.94401003e-03, 4.03001020e-03,
          9.30002017e-04, 2.72801006e-03, 2.35600001e-03, 5.58000989e-04,
          3.65800993e-03, 5.09640984e-02, 5.13360985e-02, 4.83600982e-03,
          5.82800992e-03, 9.05201957e-03, 4.03001020e-03, 7.99802039e-03,
          2.06460003e-02, 3.59600992e-03, 8.92801955e-03, 2.85200998e-02,
          3.41621004e-02, 5.08400984e-03, 8.99001956e-03, 3.54641005e-02,
          6.00160994e-02, 1.61199998e-02, 6.75801001e-03, 7.56401988e-03,
          2.77760997e-02, 6.68981001e-02, 8.68002046e-03, 2.48000002e-03,
          4.15401021e-03, 7.56401988e-03, 2.25060005e-02, 3.88121009e-02,
          1.66779999e-02, 3.72000993e-03, 1.48800004e-03, 3.53400991e-03,
          8.68002046e-03, 2.56680995e-02, 5.04680984e-02, 5.76600991e-03,
          2.48000002e-03, 1.24000001e-03, 7.68801989e-03, 3.58981006e-02,
          5.75980991e-02, 1.64919998e-02, 2.60401005e-03, 2.04599998e-03,
          2.74040997e-02, 7.16720968e-02, 1.17180003e-02, 2.41800002e-03,
          5.58000989e-04, 6.16900995e-02, 1.59339998e-02, 2.48000002e-03,
          1.48800004e-03, 7.31601007e-03, 3.28600989e-03, 6.82001002e-04,
          3.96801019e-03, 2.16999999e-03, 6.20000996e-04, 3.34800989e-03,
          5.13360985e-02 ]
      - [ 9.00242031e-02, 2.85201008e-03, 3.90600995e-03, 5.27000986e-03,
          3.78200994e-03, 6.44800998e-03, 1.90340001e-02, 2.35600001e-03,
          8.61802045e-03, 2.54820995e-02, 3.50301005e-02, 3.41000990e-03,
          7.44001009e-03, 5.13980985e-02, 9.08301994e-02, 1.56239998e-02,
          3.41000990e-03, 6.69601001e-03, 2.41180006e-02, 8.18402022e-02,
          1.15320003e-02, 2.41800002e-03, 2.97601009e-03, 6.26200996e-03,
          2.54200995e-02, 6.28681034e-02, 1.37019996e-02, 2.04599998e-03,
          5.58000989e-04, 1.55000004e-03, 4.89800982e-03, 1.97160002e-02,
          4.95380983e-02, 6.07600994e-03, 1.92199997e-03, 1.86000005e-04,
          4.58800979e-03, 1.89100001e-02, 4.29041013e-02, 1.06020002e-02,
          1.98399997e-03, 1.73599995e-03, 2.55440995e-02, 4.74301018e-02,
          5.39400987e-03, 1.55000004e-03, 2.47999997e-04, 7.99181983e-02,
          1.40119996e-02, 1.61200005e-03, 6.82001002e-04, 8.24602041e-03,
          1.98399997e-03, 3.10000993e-04, 2.41800002e-03, 2.66601006e-03,
          4.34001005e-04, 2.48000002e-03, 9.00242031e-02, 5.25760986e-02,
          3.41000990e-03, 3.65800993e-03, 6.32400997e-03, 4.89800982e-03,
          8.43202043e-03, 2.53580995e-02, 2.85201008e-03, 8.06002039e-03,
          2.70320997e-02, 3.74481007e-02, 4.52600978e-03, 7.56401988e-03,
          5.13980985e-02, 9.10781994e-02, 1.46319997e-02, 3.72000993e-03,
          7.13001005e-03, 2.44900007e-02, 7.77482018e-02, 1.10980002e-02,
          2.04599998e-03, 4.27801022e-03, 7.68801989e-03, 3.14341001e-02,
          6.15660995e-02, 1.44459996e-02, 1.92199997e-03, 8.06002005e-04,
          1.92199997e-03, 5.64200990e-03, 2.02740002e-02, 5.13360985e-02,
          6.69601001e-03, 2.23200000e-03, 1.23999998e-04, 5.95200993e-03,
          2.17000004e-02, 4.37721014e-02, 9.79601964e-03, 2.29400001e-03,
          2.29400001e-03, 2.52340995e-02, 4.68721017e-02, 5.70400991e-03,
          1.42600003e-03, 4.34001005e-04, 8.63661990e-02, 1.38879996e-02,
          1.30200002e-03, 6.82001002e-04, 7.81201990e-03, 1.92199997e-03,
          3.72000999e-04, 2.54201004e-03, 2.35600001e-03, 4.96000983e-04,
          2.72801006e-03, 5.25760986e-02, 6.37361035e-02, 4.40200977e-03,
          4.34001023e-03, 6.32400997e-03, 5.27000986e-03, 7.25401007e-03,
          2.14520004e-02, 3.34800989e-03, 7.81201990e-03, 2.72800997e-02,
          3.52161005e-02, 4.83600982e-03, 7.62601988e-03, 4.81741019e-02,
          7.78101981e-02, 1.43219996e-02, 3.96801019e-03, 8.06002039e-03,
          2.64120996e-02, 7.32840970e-02, 1.08500002e-02, 1.30200002e-03,
          4.89800982e-03, 9.11401957e-03, 3.28601003e-02, 6.12560995e-02,
          1.53759997e-02, 2.16999999e-03, 1.30200002e-03, 2.23200000e-03,
          5.45600988e-03, 2.10800003e-02, 4.93520983e-02, 5.33200987e-03,
          1.79799995e-03, 2.47999997e-04, 6.44800998e-03, 2.12660003e-02,
          4.12301011e-02, 1.00440001e-02, 2.10799999e-03, 2.10799999e-03,
          2.73420997e-02, 4.94760983e-02, 6.01400994e-03, 1.61200005e-03,
          2.47999997e-04, 9.12021995e-02, 1.47559997e-02, 1.48800004e-03,
          9.92001966e-04, 7.93602038e-03, 1.36400003e-03, 4.34001005e-04,
          2.85201008e-03, 2.16999999e-03, 6.20000996e-04, 2.97601009e-03,
          6.37361035e-02 ]
      - [ 5.50560988e-02, 1.98399997e-03, 8.55602045e-03, 5.76600991e-03,
          2.66601006e-03, 8.55602045e-03, 2.51100995e-02, 2.35600001e-03,
          5.27000986e-03, 1.78560000e-02, 4.63141017e-02, 2.85201008e-03,
          6.13800995e-03, 4.43301015e-02, 9.25042033e-02, 1.58099998e-02,
          9.54801962e-03, 8.99001956e-03, 2.10180003e-02, 9.80841964e-02,
          1.64299998e-02, 2.10799999e-03, 1.98399997e-03, 5.45600988e-03,
          2.67220996e-02, 4.16021012e-02, 1.84140000e-02, 2.41800002e-03,
          1.55000004e-03, 1.85999996e-03, 5.08400984e-03, 1.70499999e-02,
          3.88741009e-02, 8.86601955e-03, 4.21601022e-03, 5.58000989e-04,
          4.96000983e-03, 2.15760004e-02, 6.23720996e-02, 1.28340004e-02,
          3.53400991e-03, 8.24602041e-03, 1.54999997e-02, 6.25580996e-02,
          8.18402041e-03, 1.55000004e-03, 5.58000989e-04, 3.26121002e-02,
          1.24620004e-02, 1.92199997e-03, 1.11600000e-03, 9.92001966e-03,
          4.46400978e-03, 6.82001002e-04, 4.83600982e-03, 7.62601988e-03,
          7.44001009e-04, 6.26200996e-03, 5.50560988e-02, 2.74040997e-02,
          3.10001010e-03, 9.85801965e-03, 5.33200987e-03, 3.34800989e-03,
          8.92801955e-03, 2.57300995e-02, 1.98399997e-03, 6.63401000e-03,
          1.95920002e-02, 4.53841016e-02, 3.72000993e-03, 5.45600988e-03,
          4.78641018e-02, 9.60382000e-02, 1.57479998e-02, 1.16560003e-02,
          8.74202047e-03, 2.21340004e-02, 9.97582003e-02, 1.63059998e-02,
          1.92199997e-03, 2.72801006e-03, 5.64200990e-03, 2.51720995e-02,
          4.25321013e-02, 1.76080000e-02, 2.41800002e-03, 1.55000004e-03,
          2.35600001e-03, 5.20800985e-03, 1.82900000e-02, 3.81921008e-02,
          8.43202043e-03, 5.08400984e-03, 3.10000993e-04, 5.45600988e-03,
          2.26300005e-02, 6.85101002e-02, 1.19660003e-02, 3.34800989e-03,
          8.99001956e-03, 1.47559997e-02, 6.68360963e-02, 7.93602038e-03,
          1.36400003e-03, 8.06002005e-04, 3.54021005e-02, 1.15940003e-02,
          1.67400006e-03, 1.11600000e-03, 8.12202040e-03, 4.40200977e-03,
          4.96000983e-04, 3.96801019e-03, 9.30001959e-03, 7.44001009e-04,
          6.01400994e-03, 2.74040997e-02, 6.60921037e-02, 4.27801022e-03,
          1.02300001e-02, 7.75001990e-03, 3.59600992e-03, 8.18402041e-03,
          1.90960001e-02, 1.73599995e-03, 6.51000999e-03, 1.90960001e-02,
          3.83781008e-02, 4.96000983e-03, 5.70400991e-03, 4.34001014e-02,
          8.75442028e-02, 1.43839996e-02, 1.17180003e-02, 9.54801962e-03,
          2.20100004e-02, 9.54181999e-02, 1.56859998e-02, 1.61200005e-03,
          3.65800993e-03, 6.75801001e-03, 2.36220006e-02, 3.86261009e-02,
          1.59959998e-02, 2.10799999e-03, 1.24000001e-03, 1.48800004e-03,
          4.96000983e-03, 1.87240001e-02, 3.56501006e-02, 8.92801955e-03,
          3.78200994e-03, 3.72000999e-04, 5.95200993e-03, 2.38080006e-02,
          6.90061003e-02, 1.09740002e-02, 3.47200991e-03, 8.80401954e-03,
          1.63679998e-02, 6.26201034e-02, 8.80401954e-03, 1.48800004e-03,
          6.20000996e-04, 3.42241004e-02, 1.30200004e-02, 1.48800004e-03,
          1.05399999e-03, 8.61802045e-03, 4.58800979e-03, 5.58000989e-04,
          4.52600978e-03, 8.18402041e-03, 7.44001009e-04, 5.14600985e-03,
          6.60921037e-02 ]
      - [ 6.51620999e-02, 2.85201008e-03, 8.68002046e-03, 6.07600994e-03,
          3.22401011e-03, 6.26200996e-03, 2.22580004e-02, 2.16999999e-03,
          5.51800989e-03, 2.64740996e-02, 3.70761007e-02, 2.79001007e-03,
          6.94401003e-03, 6.29300997e-02, 1.16063997e-01, 1.69259999e-02,
          8.30802042e-03, 6.01400994e-03, 2.30020005e-02, 9.57282037e-02,
          1.74840000e-02, 2.48000002e-03, 2.10799999e-03, 5.89000992e-03,
          1.93440001e-02, 3.01941000e-02, 1.69259999e-02, 2.48000002e-03,
          1.30200002e-03, 2.16999999e-03, 4.65000980e-03, 1.35779995e-02,
          2.79620998e-02, 5.39400987e-03, 2.48000002e-03, 9.30002017e-04,
          4.27801022e-03, 2.72180997e-02, 6.13800995e-02, 1.02920001e-02,
          2.35600001e-03, 1.06020002e-02, 1.81660000e-02, 6.03260994e-02,
          7.99802039e-03, 1.42600003e-03, 8.68002011e-04, 3.26741003e-02,
          9.92001966e-03, 1.42600003e-03, 2.41800002e-03, 5.45600988e-03,
          1.67400006e-03, 7.44001009e-04, 3.65800993e-03, 1.03540001e-02,
          3.10000993e-04, 6.01400994e-03, 6.51620999e-02, 3.06901000e-02,
          3.41000990e-03, 9.67201963e-03, 6.44800998e-03, 3.78200994e-03,
          6.32400997e-03, 2.43040007e-02, 2.60401005e-03, 7.00601004e-03,
          2.92020999e-02, 3.99281010e-02, 3.34800989e-03, 5.64200990e-03,
          6.47281036e-02, 1.29641995e-01, 1.66159999e-02, 8.49402044e-03,
          7.31601007e-03, 2.24440005e-02, 9.04581994e-02, 1.48179997e-02,
          2.16999999e-03, 2.91401008e-03, 6.88201003e-03, 1.99640002e-02,
          3.03801000e-02, 1.69259999e-02, 2.35600001e-03, 1.36400003e-03,
          2.16999999e-03, 4.83600982e-03, 1.44459996e-02, 2.94500999e-02,
          5.27000986e-03, 2.48000002e-03, 7.44001009e-04, 4.89800982e-03,
          2.95120999e-02, 6.49761036e-02, 1.06020002e-02, 2.41800002e-03,
          1.02920001e-02, 1.69259999e-02, 6.54721037e-02, 8.06002039e-03,
          1.48800004e-03, 9.92001966e-04, 3.00701000e-02, 8.55602045e-03,
          1.42600003e-03, 2.29400001e-03, 5.14600985e-03, 2.10799999e-03,
          5.58000989e-04, 3.16201011e-03, 1.05400002e-02, 7.44001009e-04,
          6.13800995e-03, 3.06901000e-02, 1.38694003e-01, 5.20800985e-03,
          1.10360002e-02, 6.82001002e-03, 7.19201006e-03, 5.89000992e-03,
          2.07080003e-02, 2.66601006e-03, 6.88201003e-03, 2.80240998e-02,
          3.73861007e-02, 4.77400981e-03, 6.94401003e-03, 6.06980994e-02,
          1.00440003e-01, 1.33300005e-02, 1.06020002e-02, 6.51000999e-03,
          2.08320003e-02, 7.08661005e-02, 1.30820004e-02, 2.23200000e-03,
          5.58000989e-03, 6.07600994e-03, 1.73599999e-02, 2.41800006e-02,
          1.24000004e-02, 1.48800004e-03, 8.68002011e-04, 2.48000002e-03,
          5.64200990e-03, 1.45079996e-02, 2.54200995e-02, 5.39400987e-03,
          1.85999996e-03, 4.96000983e-04, 5.45600988e-03, 3.33561003e-02,
          5.67920990e-02, 8.92801955e-03, 2.23200000e-03, 6.94401003e-03,
          1.60579998e-02, 5.92100993e-02, 7.56401988e-03, 1.67400006e-03,
          6.82001002e-04, 2.49240007e-02, 7.13001005e-03, 7.44001009e-04,
          1.55000004e-03, 3.59600992e-03, 1.55000004e-03, 2.47999997e-04,
          2.16999999e-03, 6.69601001e-03, 3.10000993e-04, 3.10001010e-03,
          1.38694003e-01 ]
      - [ 6.28060997e-02, 2.16999999e-03, 9.61001962e-03, 5.45600988e-03,
          2.97601009e-03, 6.94401003e-03, 2.15760004e-02, 2.23200000e-03,
          5.82800992e-03, 2.63500996e-02, 3.70761007e-02, 2.97601009e-03,
          6.07600994e-03, 6.11320995e-02, 1.15691997e-01, 1.72979999e-02,
          7.37801008e-03, 6.07600994e-03, 2.48000007e-02, 9.75262001e-02,
          1.81040000e-02, 2.60401005e-03, 1.98399997e-03, 5.51800989e-03,
          1.92200001e-02, 2.99461000e-02, 1.83520000e-02, 1.73599995e-03,
          1.42600003e-03, 2.85201008e-03, 5.39400987e-03, 1.31440004e-02,
          2.82100998e-02, 6.32400997e-03, 2.97601009e-03, 8.68002011e-04,
          3.96801019e-03, 2.38700006e-02, 6.49140999e-02, 9.67201963e-03,
          2.04599998e-03, 9.79601964e-03, 1.69879999e-02, 5.98300993e-02,
          8.68002046e-03, 1.11600000e-03, 8.68002011e-04, 3.30461003e-02,
          1.02300001e-02, 1.67400006e-03, 1.98399997e-03, 4.77400981e-03,
          1.92199997e-03, 8.06002005e-04, 3.65800993e-03, 9.36201960e-03,
          1.24000001e-03, 6.69601001e-03, 6.28060997e-02, 2.80860998e-02,
          2.60401005e-03, 1.14700003e-02, 6.01400994e-03, 3.72000993e-03,
          7.37801008e-03, 2.49240007e-02, 2.79001007e-03, 7.00601004e-03,
          2.78380997e-02, 3.99281010e-02, 3.72000993e-03, 6.38600998e-03,
          6.31161034e-02, 1.28649995e-01, 1.61819998e-02, 8.24602041e-03,
          6.57201000e-03, 2.35600006e-02, 8.73581991e-02, 1.83520000e-02,
          2.54201004e-03, 2.97601009e-03, 6.44800998e-03, 1.99020002e-02,
          2.97600999e-02, 1.66779999e-02, 1.73599995e-03, 1.24000001e-03,
          3.03801009e-03, 4.83600982e-03, 1.61819998e-02, 2.93880999e-02,
          6.01400994e-03, 2.72801006e-03, 9.92001966e-04, 4.34001023e-03,
          2.84580998e-02, 6.78901002e-02, 1.01060001e-02, 1.73599995e-03,
          9.98201966e-03, 1.64299998e-02, 6.34881034e-02, 8.43202043e-03,
          1.36400003e-03, 9.30002017e-04, 3.40381004e-02, 8.92801955e-03,
          1.36400003e-03, 2.23200000e-03, 3.72000993e-03, 1.92199997e-03,
          6.82001002e-04, 3.28600989e-03, 9.30001959e-03, 9.92001966e-04,
          6.94401003e-03, 2.80860998e-02, 1.35345995e-01, 4.71200980e-03,
          1.07880002e-02, 6.88201003e-03, 7.75001990e-03, 7.00601004e-03,
          1.87240001e-02, 3.10001010e-03, 7.75001990e-03, 2.75280997e-02,
          3.80061008e-02, 5.20800985e-03, 7.68801989e-03, 5.94580993e-02,
          1.00997999e-01, 1.28960004e-02, 8.80401954e-03, 6.38600998e-03,
          2.00880002e-02, 7.07421005e-02, 1.48179997e-02, 1.85999996e-03,
          5.58000989e-03, 6.69601001e-03, 1.55619998e-02, 2.41800006e-02,
          1.30820004e-02, 1.11600000e-03, 1.11600000e-03, 3.22401011e-03,
          5.89000992e-03, 1.55619998e-02, 2.49860007e-02, 5.51800989e-03,
          2.16999999e-03, 7.44001009e-04, 5.14600985e-03, 3.20541002e-02,
          6.05120994e-02, 8.49402044e-03, 1.73599995e-03, 7.25401007e-03,
          1.54379997e-02, 5.77840991e-02, 7.81201990e-03, 1.36400003e-03,
          8.06002005e-04, 2.56680995e-02, 7.25401007e-03, 1.48800004e-03,
          1.67400006e-03, 2.85201008e-03, 1.61200005e-03, 5.58000989e-04,
          2.72801006e-03, 6.75801001e-03, 3.10000993e-04, 3.72000993e-03,
          1.35345995e-01 ]
      - [ 5.93960993e-02, 1.85999996e-03, 9.67201963e-03, 6.32400997e-03,
          3.16201011e-03, 6.38600998e-03, 1.86620001e-02, 2.91401008e-03,
          5.39400987e-03, 2.77140997e-02, 3.67661007e-02, 3.59600992e-03,
          5.76600991e-03, 5.87760992e-02, 1.13831997e-01, 1.70499999e-02,
          8.99001956e-03, 7.25401007e-03, 2.43040007e-02, 9.94481966e-02,
          1.88480001e-02, 2.91401008e-03, 2.41800002e-03, 4.40200977e-03,
          1.80420000e-02, 2.88920999e-02, 1.74840000e-02, 2.29400001e-03,
          1.55000004e-03, 2.72801006e-03, 4.77400981e-03, 1.32060004e-02,
          2.80860998e-02, 5.76600991e-03, 3.28600989e-03, 1.17800001e-03,
          3.84400995e-03, 2.64120996e-02, 6.33641034e-02, 9.11401957e-03,
          2.79001007e-03, 1.09740002e-02, 1.68019999e-02, 6.11320995e-02,
          9.36201960e-03, 1.92199997e-03, 6.20000996e-04, 3.22401002e-02,
          9.23801959e-03, 1.67400006e-03, 1.79799995e-03, 5.95200993e-03,
          2.29400001e-03, 4.34001005e-04, 3.78200994e-03, 9.73401964e-03,
          8.06002005e-04, 7.00601004e-03, 5.93960993e-02, 2.95120999e-02,
          2.54201004e-03, 9.92001966e-03, 6.07600994e-03, 3.90600995e-03,
          6.01400994e-03, 2.31260005e-02, 2.85201008e-03, 6.01400994e-03,
          2.87060998e-02, 3.84401008e-02, 3.47200991e-03, 7.37801008e-03,
          6.06980994e-02, 1.22326002e-01, 1.69879999e-02, 8.68002046e-03,
          7.31601007e-03, 2.60400996e-02, 9.19461995e-02, 2.02740002e-02,
          2.48000002e-03, 3.16201011e-03, 6.07600994e-03, 1.82900000e-02,
          2.63500996e-02, 1.64299998e-02, 3.03801009e-03, 1.55000004e-03,
          2.60401005e-03, 5.08400984e-03, 1.56239998e-02, 3.02561000e-02,
          5.64200990e-03, 2.85201008e-03, 1.11600000e-03, 3.78200994e-03,
          2.81480998e-02, 6.85101002e-02, 9.85801965e-03, 2.35600001e-03,
          1.09740002e-02, 1.59339998e-02, 6.49761036e-02, 9.61001962e-03,
          1.79799995e-03, 6.82001002e-04, 3.17441002e-02, 7.62601988e-03,
          1.48800004e-03, 1.92199997e-03, 5.14600985e-03, 2.04599998e-03,
          8.68002011e-04, 3.96801019e-03, 9.11401957e-03, 7.44001009e-04,
          7.06801005e-03, 2.95120999e-02, 1.33548006e-01, 5.33200987e-03,
          1.04160002e-02, 6.32400997e-03, 6.57201000e-03, 6.57201000e-03,
          1.87240001e-02, 3.65800993e-03, 8.06002039e-03, 2.80860998e-02,
          3.36041003e-02, 4.83600982e-03, 7.31601007e-03, 5.74120991e-02,
          9.67201963e-02, 1.54379997e-02, 8.18402041e-03, 7.31601007e-03,
          2.26920005e-02, 7.57642016e-02, 1.61199998e-02, 2.72801006e-03,
          5.45600988e-03, 6.57201000e-03, 1.27100004e-02, 2.16380004e-02,
          1.38879996e-02, 1.73599995e-03, 8.68002011e-04, 3.28600989e-03,
          6.26200996e-03, 1.53139997e-02, 2.43040007e-02, 5.64200990e-03,
          2.16999999e-03, 4.34001005e-04, 4.46400978e-03, 3.18681002e-02,
          6.09460995e-02, 7.87402038e-03, 2.29400001e-03, 7.81201990e-03,
          1.61199998e-02, 5.69160990e-02, 9.23801959e-03, 1.48800004e-03,
          9.30002017e-04, 2.62260996e-02, 7.06801005e-03, 1.55000004e-03,
          1.30200002e-03, 3.22401011e-03, 1.92199997e-03, 3.10000993e-04,
          1.85999996e-03, 7.13001005e-03, 3.10000993e-04, 3.90600995e-03,
          1.33548006e-01 ]
      - [ 5.83420992e-02, 1.98399997e-03, 9.05201957e-03, 5.76600991e-03,
          3.59600992e-03, 7.19201006e-03, 1.81040000e-02, 2.48000002e-03,
          5.70400991e-03, 3.06901000e-02, 3.52781005e-02, 3.03801009e-03,
          5.95200993e-03, 5.26380986e-02, 1.16374001e-01, 1.95920002e-02,
          9.30001959e-03, 6.88201003e-03, 2.39940006e-02, 1.00129999e-01,
          1.91580001e-02, 3.28600989e-03, 2.54201004e-03, 5.33200987e-03,
          1.76700000e-02, 2.86440998e-02, 1.90340001e-02, 2.54201004e-03,
          1.92199997e-03, 2.85201008e-03, 3.78200994e-03, 1.35779995e-02,
          2.59780996e-02, 6.94401003e-03, 4.15401021e-03, 1.17800001e-03,
          3.78200994e-03, 2.43660007e-02, 6.31161034e-02, 9.42401960e-03,
          2.97601009e-03, 1.02920001e-02, 1.56859998e-02, 6.17520995e-02,
          8.74202047e-03, 2.10799999e-03, 4.96000983e-04, 3.31081003e-02,
          1.05400002e-02, 1.61200005e-03, 2.16999999e-03, 5.51800989e-03,
          2.48000002e-03, 6.82001002e-04, 3.90600995e-03, 1.02300001e-02,
          9.30002017e-04, 6.75801001e-03, 5.83420992e-02, 2.87060998e-02,
          2.66601006e-03, 1.00440001e-02, 6.38600998e-03, 3.41000990e-03,
          8.49402044e-03, 1.90960001e-02, 2.54201004e-03, 7.37801008e-03,
          3.20541002e-02, 3.52781005e-02, 3.10001010e-03, 6.94401003e-03,
          5.64820990e-02, 1.25735998e-01, 1.86000001e-02, 1.04780002e-02,
          7.81201990e-03, 2.38080006e-02, 9.27522033e-02, 1.89100001e-02,
          3.47200991e-03, 2.72801006e-03, 6.32400997e-03, 1.80420000e-02,
          2.72800997e-02, 1.71119999e-02, 2.72801006e-03, 1.61200005e-03,
          2.29400001e-03, 5.20800985e-03, 1.58719998e-02, 2.98841000e-02,
          6.75801001e-03, 4.46400978e-03, 7.44001009e-04, 4.21601022e-03,
          2.65980996e-02, 6.59681037e-02, 9.73401964e-03, 2.10799999e-03,
          1.01060001e-02, 1.55619998e-02, 6.52860999e-02, 8.61802045e-03,
          2.23200000e-03, 5.58000989e-04, 3.22401002e-02, 9.17601958e-03,
          1.48800004e-03, 2.23200000e-03, 5.58000989e-03, 2.23200000e-03,
          8.06002005e-04, 3.96801019e-03, 9.98201966e-03, 8.68002011e-04,
          6.94401003e-03, 2.87060998e-02, 1.21891998e-01, 5.27000986e-03,
          1.07880002e-02, 5.95200993e-03, 6.82001002e-03, 7.44001009e-03,
          1.78560000e-02, 2.79001007e-03, 9.11401957e-03, 2.94500999e-02,
          3.32941003e-02, 4.83600982e-03, 8.12202040e-03, 5.58620989e-02,
          1.01989999e-01, 1.61199998e-02, 1.05400002e-02, 6.51000999e-03,
          2.32500006e-02, 7.70661980e-02, 1.66159999e-02, 2.66601006e-03,
          5.39400987e-03, 7.37801008e-03, 1.43839996e-02, 2.17620004e-02,
          1.37019996e-02, 1.73599995e-03, 9.30002017e-04, 2.41800002e-03,
          6.20000996e-03, 1.50659997e-02, 2.38080006e-02, 5.58000989e-03,
          2.97601009e-03, 4.96000983e-04, 4.77400981e-03, 2.99461000e-02,
          6.05120994e-02, 7.81201990e-03, 2.04599998e-03, 7.44001009e-03,
          1.54379997e-02, 5.90240993e-02, 7.93602038e-03, 1.67400006e-03,
          4.96000983e-04, 2.65980996e-02, 7.25401007e-03, 1.05399999e-03,
          1.73599995e-03, 4.65000980e-03, 1.85999996e-03, 6.82001002e-04,
          2.48000002e-03, 6.63401000e-03, 5.58000989e-04, 4.58800979e-03,
          1.21891998e-01 ]
      - [ 5.93960993e-02, 1.92199997e-03, 9.05201957e-03, 5.27000986e-03,
          3.28600989e-03, 8.06002039e-03, 1.77940000e-02, 2.54201004e-03,
          5.76600991e-03, 2.87060998e-02, 3.42241004e-02, 3.34800989e-03,
          7.06801005e-03, 5.41260988e-02, 1.14390001e-01, 1.89100001e-02,
          8.99001956e-03, 8.68002046e-03, 2.44280007e-02, 9.88281965e-02,
          2.01500002e-02, 3.53400991e-03, 2.48000002e-03, 5.51800989e-03,
          1.59339998e-02, 2.79620998e-02, 1.97780002e-02, 2.29400001e-03,
          2.29400001e-03, 2.29400001e-03, 3.47200991e-03, 1.34540005e-02,
          2.65980996e-02, 6.82001002e-03, 3.78200994e-03, 1.24000001e-03,
          3.47200991e-03, 2.67220996e-02, 6.28060997e-02, 1.02920001e-02,
          3.03801009e-03, 9.11401957e-03, 1.63679998e-02, 6.08220994e-02,
          9.54801962e-03, 1.30200002e-03, 7.44001009e-04, 3.31701003e-02,
          9.11401957e-03, 1.61200005e-03, 2.10799999e-03, 6.32400997e-03,
          2.16999999e-03, 8.68002011e-04, 3.72000993e-03, 9.67201963e-03,
          1.24000001e-03, 7.06801005e-03, 5.93960993e-02, 3.00081000e-02,
          2.72801006e-03, 9.85801965e-03, 7.06801005e-03, 4.21601022e-03,
          7.81201990e-03, 1.91580001e-02, 2.85201008e-03, 6.63401000e-03,
          3.03801000e-02, 3.63321006e-02, 3.65800993e-03, 6.20000996e-03,
          5.86520992e-02, 1.22635998e-01, 1.86000001e-02, 1.02920001e-02,
          8.06002039e-03, 2.52340995e-02, 9.31242034e-02, 1.95300002e-02,
          2.85201008e-03, 2.72801006e-03, 5.95200993e-03, 1.79180000e-02,
          2.72180997e-02, 1.82900000e-02, 1.73599995e-03, 2.10799999e-03,
          2.91401008e-03, 3.65800993e-03, 1.56859998e-02, 2.79620998e-02,
          6.75801001e-03, 2.97601009e-03, 1.05399999e-03, 4.52600978e-03,
          2.85200998e-02, 6.63400963e-02, 1.09120002e-02, 2.72801006e-03,
          1.01680001e-02, 1.54379997e-02, 6.37980998e-02, 9.30001959e-03,
          1.79799995e-03, 6.20000996e-04, 3.15581001e-02, 9.30001959e-03,
          1.85999996e-03, 2.10799999e-03, 5.39400987e-03, 2.10799999e-03,
          9.92001966e-04, 3.10001010e-03, 9.73401964e-03, 8.06002005e-04,
          6.88201003e-03, 3.00081000e-02, 1.20899998e-01, 4.83600982e-03,
          1.09120002e-02, 7.93602038e-03, 7.13001005e-03, 6.82001002e-03,
          1.58099998e-02, 3.10001010e-03, 7.81201990e-03, 2.96360999e-02,
          3.39141004e-02, 6.07600994e-03, 7.87402038e-03, 5.55520989e-02,
          9.93241966e-02, 1.53759997e-02, 1.02300001e-02, 7.75001990e-03,
          2.30640005e-02, 7.93602020e-02, 1.64919998e-02, 2.85201008e-03,
          5.89000992e-03, 6.75801001e-03, 1.40119996e-02, 2.19480004e-02,
          1.55619998e-02, 1.55000004e-03, 1.05399999e-03, 3.22401011e-03,
          5.20800985e-03, 1.37019996e-02, 2.34360006e-02, 5.39400987e-03,
          2.66601006e-03, 8.06002005e-04, 4.71200980e-03, 3.13101001e-02,
          6.18140996e-02, 8.68002046e-03, 2.41800002e-03, 6.88201003e-03,
          1.61199998e-02, 5.69780990e-02, 8.55602045e-03, 1.98399997e-03,
          6.20000996e-04, 2.59160995e-02, 6.94401003e-03, 1.11600000e-03,
          1.48800004e-03, 4.09201020e-03, 1.85999996e-03, 5.58000989e-04,
          1.79799995e-03, 6.57201000e-03, 2.47999997e-04, 4.52600978e-03,
          1.20899998e-01 ]
      - [ 5.98920994e-02, 2.16999999e-03, 8.24602041e-03, 9.42401960e-03,
          3.28600989e-03, 8.80401954e-03, 1.76700000e-02, 4.27801022e-03,
          7.50201987e-03, 3.27361003e-02, 5.00960983e-02, 2.85201008e-03,
          7.44001009e-03, 3.57741006e-02, 1.18667997e-01, 2.19480004e-02,
          7.68801989e-03, 6.82001002e-03, 1.69879999e-02, 6.17520995e-02,
          1.26480004e-02, 2.79001007e-03, 1.67400006e-03, 4.46400978e-03,
          1.34540005e-02, 2.36840006e-02, 1.45699997e-02, 3.53400991e-03,
          2.35600001e-03, 2.91401008e-03, 5.58000989e-03, 2.05220003e-02,
          3.63941006e-02, 1.01060001e-02, 5.39400987e-03, 6.82001002e-04,
          4.77400981e-03, 2.45520007e-02, 5.82800992e-02, 1.79800000e-02,
          4.40200977e-03, 9.23801959e-03, 2.15140004e-02, 6.17520995e-02,
          9.98201966e-03, 2.66601006e-03, 9.30002017e-04, 3.81921008e-02,
          1.75460000e-02, 2.35600001e-03, 1.79799995e-03, 5.70400991e-03,
          3.16201011e-03, 3.72000999e-04, 4.21601022e-03, 8.06002039e-03,
          1.42600003e-03, 7.44001009e-03, 5.98920994e-02, 3.12481001e-02,
          2.91401008e-03, 9.73401964e-03, 9.11401957e-03, 2.85201008e-03,
          9.36201960e-03, 1.95920002e-02, 4.40200977e-03, 8.43202043e-03,
          3.23641002e-02, 5.17080985e-02, 3.03801009e-03, 7.56401988e-03,
          3.85021009e-02, 1.23318002e-01, 2.29400005e-02, 8.99001956e-03,
          7.25401007e-03, 1.91580001e-02, 6.84480965e-02, 1.34540005e-02,
          2.97601009e-03, 1.61200005e-03, 5.95200993e-03, 1.38259996e-02,
          2.41180006e-02, 1.53139997e-02, 3.28600989e-03, 1.98399997e-03,
          3.84400995e-03, 5.51800989e-03, 2.05840003e-02, 3.88741009e-02,
          9.11401957e-03, 5.45600988e-03, 1.05399999e-03, 4.58800979e-03,
          2.51720995e-02, 5.76600991e-02, 1.72979999e-02, 4.52600978e-03,
          9.36201960e-03, 2.16380004e-02, 6.29921034e-02, 9.42401960e-03,
          2.79001007e-03, 8.06002005e-04, 3.76961008e-02, 1.65539999e-02,
          1.85999996e-03, 1.17800001e-03, 5.14600985e-03, 3.72000993e-03,
          5.58000989e-04, 3.65800993e-03, 8.49402044e-03, 1.61200005e-03,
          6.44800998e-03, 3.12481001e-02, 4.62521017e-02, 3.78200994e-03,
          1.07880002e-02, 1.04780002e-02, 3.96801019e-03, 9.98201966e-03,
          1.82280000e-02, 4.34001023e-03, 8.43202043e-03, 3.31701003e-02,
          4.96000983e-02, 3.65800993e-03, 7.31601007e-03, 4.14781012e-02,
          1.19783998e-01, 2.33120006e-02, 1.11600002e-02, 6.44800998e-03,
          1.87240001e-02, 6.60301000e-02, 1.32680004e-02, 2.72801006e-03,
          3.03801009e-03, 6.38600998e-03, 1.40739996e-02, 2.00880002e-02,
          1.35779995e-02, 3.10001010e-03, 1.42600003e-03, 3.84400995e-03,
          6.69601001e-03, 2.31260005e-02, 3.75721008e-02, 8.61802045e-03,
          4.96000983e-03, 6.20000996e-04, 5.02200983e-03, 2.52340995e-02,
          5.57380989e-02, 1.66779999e-02, 4.71200980e-03, 8.74202047e-03,
          2.02740002e-02, 6.20000996e-02, 1.00440001e-02, 2.29400001e-03,
          7.44001009e-04, 3.45961004e-02, 1.47559997e-02, 1.79799995e-03,
          1.30200002e-03, 5.27000986e-03, 3.16201011e-03, 4.96000983e-04,
          3.41000990e-03, 7.93602038e-03, 1.11600000e-03, 6.07600994e-03,
          4.62521017e-02 ]
      - [ 5.68540990e-02, 2.54201004e-03, 7.87402038e-03, 8.55602045e-03,
          3.03801009e-03, 9.67201963e-03, 2.04600003e-02, 3.47200991e-03,
          7.75001990e-03, 3.15581001e-02, 4.97240983e-02, 3.72000993e-03,
          6.57201000e-03, 3.94941010e-02, 1.18978001e-01, 2.36840006e-02,
          7.50201987e-03, 7.25401007e-03, 1.56859998e-02, 6.11940995e-02,
          1.16560003e-02, 1.92199997e-03, 2.72801006e-03, 5.27000986e-03,
          1.40119996e-02, 2.34980006e-02, 1.41979996e-02, 3.22401011e-03,
          2.54201004e-03, 2.91401008e-03, 5.27000986e-03, 2.10800003e-02,
          3.81301008e-02, 9.98201966e-03, 4.46400978e-03, 3.10000993e-04,
          4.65000980e-03, 2.54200995e-02, 5.63580990e-02, 1.90340001e-02,
          5.33200987e-03, 9.92001966e-03, 2.07700003e-02, 5.99540994e-02,
          9.17601958e-03, 3.53400991e-03, 1.17800001e-03, 3.78821008e-02,
          1.63679998e-02, 3.16201011e-03, 1.55000004e-03, 6.44800998e-03,
          3.28600989e-03, 4.96000983e-04, 3.90600995e-03, 9.92001966e-03,
          1.11600000e-03, 7.06801005e-03, 5.68540990e-02, 3.18681002e-02,
          3.03801009e-03, 1.01060001e-02, 9.05201957e-03, 3.10001010e-03,
          1.01060001e-02, 1.94060002e-02, 3.59600992e-03, 7.93602038e-03,
          3.21781002e-02, 5.18320985e-02, 4.27801022e-03, 7.19201006e-03,
          4.12921011e-02, 1.24682002e-01, 2.26920005e-02, 8.06002039e-03,
          8.12202040e-03, 1.82280000e-02, 6.95021003e-02, 1.17800003e-02,
          2.35600001e-03, 2.60401005e-03, 6.44800998e-03, 1.32060004e-02,
          2.38700006e-02, 1.34540005e-02, 3.16201011e-03, 1.98399997e-03,
          3.34800989e-03, 4.89800982e-03, 2.15760004e-02, 4.04241011e-02,
          1.02300001e-02, 3.84400995e-03, 6.20000996e-04, 4.58800979e-03,
          2.32500006e-02, 5.58620989e-02, 1.85380001e-02, 4.89800982e-03,
          9.11401957e-03, 2.00880002e-02, 6.02020994e-02, 9.36201960e-03,
          3.59600992e-03, 1.11600000e-03, 3.82541008e-02, 1.67399999e-02,
          2.54201004e-03, 1.42600003e-03, 6.26200996e-03, 3.41000990e-03,
          5.58000989e-04, 3.72000993e-03, 9.11401957e-03, 1.24000001e-03,
          6.75801001e-03, 3.18681002e-02, 4.66241017e-02, 4.21601022e-03,
          1.11600002e-02, 1.06020002e-02, 3.65800993e-03, 1.03540001e-02,
          1.79800000e-02, 3.59600992e-03, 8.92801955e-03, 3.50921005e-02,
          4.78021018e-02, 3.90600995e-03, 7.37801008e-03, 4.27801013e-02,
          1.22202002e-01, 2.36840006e-02, 9.73401964e-03, 8.80401954e-03,
          1.75460000e-02, 6.49761036e-02, 1.22760003e-02, 2.66601006e-03,
          4.09201020e-03, 6.44800998e-03, 1.29580004e-02, 2.15140004e-02,
          1.24000004e-02, 2.79001007e-03, 1.67400006e-03, 3.84400995e-03,
          4.96000983e-03, 2.19480004e-02, 3.85641009e-02, 1.01680001e-02,
          3.78200994e-03, 3.72000999e-04, 4.40200977e-03, 2.47380007e-02,
          5.45600988e-02, 1.90340001e-02, 4.89800982e-03, 7.99802039e-03,
          1.93440001e-02, 5.97060993e-02, 9.23801959e-03, 2.85201008e-03,
          1.17800001e-03, 3.49681005e-02, 1.59959998e-02, 1.98399997e-03,
          1.05399999e-03, 5.70400991e-03, 3.28600989e-03, 6.20000996e-04,
          3.90600995e-03, 7.87402038e-03, 8.68002011e-04, 6.44800998e-03,
          4.66241017e-02 ]
      - [ 6.42321035e-02, 4.58800979e-03, 7.99802039e-03, 9.67201963e-03,
          5.76600991e-03, 1.05400002e-02, 2.49240007e-02, 5.70400991e-03,
          1.02300001e-02, 2.71560997e-02, 4.14161012e-02, 6.82001002e-03,
          1.14080003e-02, 4.92280982e-02, 6.33641034e-02, 1.66779999e-02,
          6.69601001e-03, 1.13460002e-02, 2.69700997e-02, 5.95820993e-02,
          7.62601988e-03, 3.34800989e-03, 5.08400984e-03, 1.08500002e-02,
          3.11861001e-02, 4.01141010e-02, 1.54379997e-02, 3.16201011e-03,
          2.23200000e-03, 4.58800979e-03, 9.30001959e-03, 2.87680998e-02,
          3.63321006e-02, 7.62601988e-03, 4.09201020e-03, 7.44001009e-04,
          9.36201960e-03, 4.55081016e-02, 4.96620983e-02, 1.50659997e-02,
          3.16201011e-03, 4.15401021e-03, 2.19480004e-02, 4.82360981e-02,
          7.50201987e-03, 3.41000990e-03, 7.44001009e-04, 3.39761004e-02,
          1.33300005e-02, 2.60401005e-03, 2.72801006e-03, 5.70400991e-03,
          3.53400991e-03, 1.23999998e-04, 3.10001010e-03, 4.83600982e-03,
          7.44001009e-04, 4.77400981e-03, 6.42321035e-02, 5.27620986e-02,
          5.33200987e-03, 7.06801005e-03, 9.54801962e-03, 6.88201003e-03,
          1.06020002e-02, 2.33740006e-02, 5.45600988e-03, 1.12840002e-02,
          2.75900997e-02, 3.87501009e-02, 7.75001990e-03, 1.07880002e-02,
          4.94140983e-02, 6.68360963e-02, 1.59959998e-02, 7.68801989e-03,
          1.11600002e-02, 2.79000998e-02, 5.90240993e-02, 6.88201003e-03,
          3.28600989e-03, 5.51800989e-03, 1.12220002e-02, 3.14341001e-02,
          4.11061011e-02, 1.45079996e-02, 3.22401011e-03, 2.60401005e-03,
          4.21601022e-03, 9.92001966e-03, 2.87060998e-02, 3.63941006e-02,
          6.26200996e-03, 4.40200977e-03, 7.44001009e-04, 9.36201960e-03,
          4.82980981e-02, 5.18940985e-02, 1.63059998e-02, 3.28600989e-03,
          3.90600995e-03, 2.34360006e-02, 5.22660986e-02, 7.50201987e-03,
          3.28600989e-03, 8.06002005e-04, 3.27361003e-02, 1.30200004e-02,
          2.60401005e-03, 2.91401008e-03, 6.32400997e-03, 3.22401011e-03,
          1.86000005e-04, 2.66601006e-03, 4.52600978e-03, 9.30002017e-04,
          4.58800979e-03, 5.27620986e-02, 3.92461009e-02, 5.08400984e-03,
          7.56401988e-03, 1.02300001e-02, 6.26200996e-03, 1.05400002e-02,
          2.20100004e-02, 5.33200987e-03, 1.24000004e-02, 2.67220996e-02,
          3.76341008e-02, 5.70400991e-03, 1.01060001e-02, 5.40640987e-02,
          7.39661008e-02, 1.66779999e-02, 6.82001002e-03, 1.07260002e-02,
          2.87680998e-02, 5.96440993e-02, 7.37801008e-03, 2.60401005e-03,
          4.71200980e-03, 1.08500002e-02, 2.61020996e-02, 4.08581011e-02,
          1.54999997e-02, 3.72000993e-03, 2.48000002e-03, 4.71200980e-03,
          8.74202047e-03, 2.88920999e-02, 3.85021009e-02, 6.63401000e-03,
          4.15401021e-03, 1.05399999e-03, 9.98201966e-03, 5.03440984e-02,
          5.62340990e-02, 1.39499996e-02, 2.97601009e-03, 3.72000993e-03,
          2.28780005e-02, 5.78460991e-02, 8.12202040e-03, 3.16201011e-03,
          9.92001966e-04, 3.26121002e-02, 1.35159995e-02, 2.48000002e-03,
          2.72801006e-03, 5.58000989e-03, 3.65800993e-03, 3.10000993e-04,
          2.91401008e-03, 4.15401021e-03, 8.06002005e-04, 4.71200980e-03,
          3.92461009e-02 ]
      - [ 5.56140989e-02, 6.13800995e-03, 8.24602041e-03, 9.54801962e-03,
          5.45600988e-03, 9.92001966e-03, 2.23820005e-02, 6.69601001e-03,
          9.79601964e-03, 2.74660997e-02, 4.12921011e-02, 5.76600991e-03,
          1.10360002e-02, 3.96801010e-02, 6.11940995e-02, 1.77320000e-02,
          6.94401003e-03, 1.16560003e-02, 2.81480998e-02, 5.74120991e-02,
          9.36201960e-03, 5.02200983e-03, 5.14600985e-03, 1.10980002e-02,
          2.85200998e-02, 3.96801010e-02, 1.72979999e-02, 5.02200983e-03,
          2.60401005e-03, 4.77400981e-03, 9.92001966e-03, 2.48620007e-02,
          3.40381004e-02, 6.57201000e-03, 4.58800979e-03, 5.58000989e-04,
          9.98201966e-03, 3.74481007e-02, 5.13980985e-02, 1.41359996e-02,
          4.71200980e-03, 4.27801022e-03, 2.26920005e-02, 5.43740988e-02,
          1.07880002e-02, 3.53400991e-03, 9.30002017e-04, 3.35421003e-02,
          1.43839996e-02, 2.72801006e-03, 3.03801009e-03, 7.68801989e-03,
          4.09201020e-03, 5.58000989e-04, 3.78200994e-03, 4.58800979e-03,
          1.73599995e-03, 6.51000999e-03, 5.56140989e-02, 4.51361015e-02,
          5.82800992e-03, 8.12202040e-03, 9.54801962e-03, 5.58000989e-03,
          9.98201966e-03, 2.26920005e-02, 5.95200993e-03, 9.92001966e-03,
          2.72800997e-02, 4.07961011e-02, 5.45600988e-03, 1.19040003e-02,
          3.98041010e-02, 6.21860996e-02, 1.77320000e-02, 7.31601007e-03,
          1.22140003e-02, 2.91400999e-02, 5.78460991e-02, 9.48601961e-03,
          4.03001020e-03, 4.71200980e-03, 1.09740002e-02, 2.62880996e-02,
          3.96181010e-02, 1.70499999e-02, 4.52600978e-03, 3.53400991e-03,
          5.08400984e-03, 1.07260002e-02, 2.61020996e-02, 3.47201005e-02,
          6.88201003e-03, 4.46400978e-03, 6.82001002e-04, 1.17180003e-02,
          3.99901010e-02, 5.43120988e-02, 1.47559997e-02, 4.77400981e-03,
          4.96000983e-03, 2.29400005e-02, 5.58000989e-02, 1.02920001e-02,
          3.47200991e-03, 1.11600000e-03, 3.42861004e-02, 1.34540005e-02,
          3.28600989e-03, 2.91401008e-03, 7.50201987e-03, 4.03001020e-03,
          8.06002005e-04, 3.59600992e-03, 4.40200977e-03, 1.48800004e-03,
          5.76600991e-03, 4.51361015e-02, 3.52781005e-02, 4.96000983e-03,
          8.30802042e-03, 8.61802045e-03, 4.77400981e-03, 9.92001966e-03,
          2.19480004e-02, 5.64200990e-03, 1.06020002e-02, 2.68460996e-02,
          3.75101008e-02, 4.96000983e-03, 1.20280003e-02, 4.50121015e-02,
          6.96880966e-02, 1.75460000e-02, 7.99802039e-03, 1.13460002e-02,
          2.58540995e-02, 6.05740994e-02, 1.04780002e-02, 4.09201020e-03,
          4.27801022e-03, 9.98201966e-03, 2.44900007e-02, 3.75101008e-02,
          1.69879999e-02, 4.52600978e-03, 3.65800993e-03, 4.77400981e-03,
          1.09120002e-02, 2.72800997e-02, 3.55881006e-02, 6.20000996e-03,
          4.77400981e-03, 7.44001009e-04, 1.15320003e-02, 4.34621014e-02,
          5.62960990e-02, 1.45079996e-02, 4.77400981e-03, 3.65800993e-03,
          2.45520007e-02, 5.93960993e-02, 1.09740002e-02, 4.03001020e-03,
          8.06002005e-04, 3.24881002e-02, 1.48179997e-02, 2.79001007e-03,
          2.97601009e-03, 7.00601004e-03, 4.34001023e-03, 8.06002005e-04,
          3.10001010e-03, 4.52600978e-03, 1.36400003e-03, 6.51000999e-03,
          3.52781005e-02 ]
      - [ 3.11861001e-02, 3.59600992e-03, 3.47200991e-03, 1.07260002e-02,
          3.72000993e-03, 1.04160002e-02, 2.59780996e-02, 4.58800979e-03,
          9.67201963e-03, 2.79620998e-02, 4.04861011e-02, 3.59600992e-03,
          8.55602045e-03, 4.69341017e-02, 7.49581009e-02, 1.74840000e-02,
          5.14600985e-03, 9.11401957e-03, 3.38521004e-02, 8.09101984e-02,
          1.16560003e-02, 2.54201004e-03, 3.16201011e-03, 8.68002046e-03,
          2.50480995e-02, 4.83600982e-02, 1.86620001e-02, 1.85999996e-03,
          2.04599998e-03, 4.52600978e-03, 8.43202043e-03, 2.47380007e-02,
          4.62521017e-02, 6.82001002e-03, 2.60401005e-03, 4.34001005e-04,
          8.99001956e-03, 3.90601009e-02, 5.76600991e-02, 1.38879996e-02,
          1.98399997e-03, 2.04599998e-03, 2.45520007e-02, 6.33641034e-02,
          8.80401954e-03, 1.79799995e-03, 2.47999997e-04, 4.47641015e-02,
          1.44459996e-02, 2.54201004e-03, 1.48800004e-03, 7.06801005e-03,
          3.65800993e-03, 3.10000993e-04, 2.04599998e-03, 2.35600001e-03,
          1.86000005e-04, 3.16201011e-03, 3.11861001e-02, 2.79000998e-02,
          3.84400995e-03, 2.85201008e-03, 7.68801989e-03, 3.59600992e-03,
          8.43202043e-03, 2.52340995e-02, 3.53400991e-03, 7.19201006e-03,
          3.09381001e-02, 3.78201008e-02, 3.59600992e-03, 6.82001002e-03,
          4.22221012e-02, 8.45682025e-02, 1.37639996e-02, 3.53400991e-03,
          8.06002039e-03, 3.39761004e-02, 9.62862000e-02, 6.82001002e-03,
          2.35600001e-03, 3.72000993e-03, 8.43202043e-03, 3.02561000e-02,
          5.31960987e-02, 1.53759997e-02, 2.29400001e-03, 1.36400003e-03,
          2.66601006e-03, 6.69601001e-03, 2.83960998e-02, 5.18320985e-02,
          5.39400987e-03, 1.42600003e-03, 1.23999998e-04, 6.88201003e-03,
          3.70141007e-02, 6.68360963e-02, 1.07880002e-02, 1.92199997e-03,
          1.98399997e-03, 2.67220996e-02, 6.72701001e-02, 5.82800992e-03,
          1.11600000e-03, 3.10000993e-04, 4.86080982e-02, 1.26480004e-02,
          1.85999996e-03, 1.24000001e-03, 5.70400991e-03, 2.35600001e-03,
          2.47999997e-04, 2.29400001e-03, 2.41800002e-03, 3.10000993e-04,
          1.67400006e-03, 2.79000998e-02, 2.37460006e-02, 3.03801009e-03,
          4.15401021e-03, 1.02300001e-02, 3.84400995e-03, 8.12202040e-03,
          2.67220996e-02, 4.27801022e-03, 8.12202040e-03, 2.92640999e-02,
          3.90601009e-02, 3.16201011e-03, 8.55602045e-03, 5.09020984e-02,
          7.82442018e-02, 1.51279997e-02, 5.45600988e-03, 8.49402044e-03,
          3.49061005e-02, 8.92802030e-02, 1.01060001e-02, 2.48000002e-03,
          2.48000002e-03, 7.25401007e-03, 2.75280997e-02, 5.21420985e-02,
          1.90340001e-02, 2.04599998e-03, 1.30200002e-03, 2.97601009e-03,
          7.37801008e-03, 2.58540995e-02, 5.10880984e-02, 5.39400987e-03,
          2.41800002e-03, 2.47999997e-04, 7.44001009e-03, 3.97421010e-02,
          6.39220998e-02, 1.23380003e-02, 1.42600003e-03, 2.10799999e-03,
          2.62880996e-02, 6.48521036e-02, 7.00601004e-03, 1.67400006e-03,
          2.47999997e-04, 4.52601016e-02, 1.27100004e-02, 1.24000001e-03,
          1.05399999e-03, 6.94401003e-03, 3.28600989e-03, 1.86000005e-04,
          1.98399997e-03, 1.79799995e-03, 1.86000005e-04, 2.29400001e-03,
          2.37460006e-02 ]
      - [ 3.07521001e-02, 3.84400995e-03, 4.15401021e-03, 1.06640002e-02,
          3.59600992e-03, 9.85801965e-03, 2.96980999e-02, 5.70400991e-03,
          7.44001009e-03, 3.27361003e-02, 4.08581011e-02, 2.79001007e-03,
          7.68801989e-03, 3.89981009e-02, 7.38421008e-02, 1.63679998e-02,
          4.52600978e-03, 9.17601958e-03, 3.16821001e-02, 7.88021982e-02,
          9.30001959e-03, 2.91401008e-03, 3.84400995e-03, 8.06002039e-03,
          2.79620998e-02, 4.46401015e-02, 1.85380001e-02, 2.66601006e-03,
          2.60401005e-03, 4.34001023e-03, 8.30802042e-03, 2.59780996e-02,
          4.49501015e-02, 7.19201006e-03, 1.55000004e-03, 4.96000983e-04,
          8.61802045e-03, 4.22221012e-02, 5.38780987e-02, 1.47559997e-02,
          2.79001007e-03, 3.16201011e-03, 2.55440995e-02, 6.48521036e-02,
          9.92001966e-03, 1.85999996e-03, 4.34001005e-04, 4.65001017e-02,
          1.47559997e-02, 1.85999996e-03, 1.42600003e-03, 7.44001009e-03,
          3.41000990e-03, 1.86000005e-04, 2.60401005e-03, 3.78200994e-03,
          1.86000005e-04, 3.03801009e-03, 3.07521001e-02, 2.41180006e-02,
          3.65800993e-03, 2.91401008e-03, 9.67201963e-03, 3.96801019e-03,
          9.98201966e-03, 2.75900997e-02, 4.03001020e-03, 7.13001005e-03,
          3.03801000e-02, 4.19741012e-02, 2.41800002e-03, 6.75801001e-03,
          4.22221012e-02, 8.15301985e-02, 1.53139997e-02, 3.34800989e-03,
          8.43202043e-03, 3.47201005e-02, 9.31861997e-02, 6.82001002e-03,
          1.73599995e-03, 3.90600995e-03, 7.50201987e-03, 2.80860998e-02,
          5.08400984e-02, 1.66779999e-02, 2.29400001e-03, 1.55000004e-03,
          3.78200994e-03, 6.38600998e-03, 2.72800997e-02, 4.79881018e-02,
          4.65000980e-03, 1.42600003e-03, 2.47999997e-04, 6.94401003e-03,
          3.58981006e-02, 6.42321035e-02, 1.18420003e-02, 2.04599998e-03,
          1.92199997e-03, 3.01941000e-02, 7.10520968e-02, 6.26200996e-03,
          1.73599995e-03, 2.47999997e-04, 4.85460982e-02, 1.36399996e-02,
          1.30200002e-03, 1.05399999e-03, 5.70400991e-03, 2.91401008e-03,
          1.86000005e-04, 2.41800002e-03, 2.72801006e-03, 2.47999997e-04,
          2.04599998e-03, 2.41180006e-02, 2.41800006e-02, 3.28600989e-03,
          4.83600982e-03, 9.61001962e-03, 3.41000990e-03, 9.61001962e-03,
          3.00701000e-02, 4.71200980e-03, 7.31601007e-03, 3.03801000e-02,
          3.86881009e-02, 3.59600992e-03, 7.81201990e-03, 4.50741015e-02,
          7.17341006e-02, 1.72359999e-02, 5.33200987e-03, 7.93602038e-03,
          3.69521007e-02, 8.78541991e-02, 8.99001956e-03, 2.35600001e-03,
          2.41800002e-03, 9.05201957e-03, 2.70940997e-02, 5.17080985e-02,
          1.87240001e-02, 2.66601006e-03, 2.04599998e-03, 3.65800993e-03,
          6.88201003e-03, 2.45520007e-02, 5.04680984e-02, 6.88201003e-03,
          1.92199997e-03, 3.10000993e-04, 6.20000996e-03, 3.86261009e-02,
          6.23100996e-02, 1.41359996e-02, 2.48000002e-03, 2.29400001e-03,
          2.78380997e-02, 6.35500997e-02, 6.82001002e-03, 1.42600003e-03,
          6.20001010e-05, 4.61281016e-02, 1.45079996e-02, 1.11600000e-03,
          1.30200002e-03, 6.32400997e-03, 2.72801006e-03, 3.10000993e-04,
          2.97601009e-03, 2.79001007e-03, 0., 2.16999999e-03,
          2.41800006e-02 ]
      - [ 2.54200995e-02, 3.41000990e-03, 5.08400984e-03, 1.02920001e-02,
          2.97601009e-03, 9.17601958e-03, 2.64740996e-02, 4.65000980e-03,
          1.04780002e-02, 3.41621004e-02, 4.35861014e-02, 3.90600995e-03,
          1.23380003e-02, 4.37721014e-02, 6.68360963e-02, 1.95300002e-02,
          6.69601001e-03, 1.00440001e-02, 3.23641002e-02, 7.50821978e-02,
          1.21520003e-02, 2.48000002e-03, 3.34800989e-03, 8.18402041e-03,
          2.38700006e-02, 4.53221016e-02, 2.24440005e-02, 3.59600992e-03,
          2.35600001e-03, 4.65000980e-03, 9.42401960e-03, 2.83340998e-02,
          4.16641012e-02, 7.37801008e-03, 2.29400001e-03, 2.47999997e-04,
          8.74202047e-03, 3.39761004e-02, 5.51180989e-02, 1.68639999e-02,
          3.28600989e-03, 1.85999996e-03, 2.87680998e-02, 5.93960993e-02,
          9.11401957e-03, 2.66601006e-03, 1.86000005e-04, 4.27181013e-02,
          1.73599999e-02, 2.04599998e-03, 2.04599998e-03, 9.23801959e-03,
          2.41800002e-03, 3.10000993e-04, 4.34001023e-03, 3.03801009e-03,
          4.34001005e-04, 3.41000990e-03, 2.54200995e-02, 1.98400002e-02,
          3.03801009e-03, 2.91401008e-03, 7.93602038e-03, 2.48000002e-03,
          7.62601988e-03, 2.73420997e-02, 4.21601022e-03, 8.06002039e-03,
          3.39761004e-02, 4.84220982e-02, 3.65800993e-03, 7.62601988e-03,
          4.52601016e-02, 8.17781985e-02, 1.60579998e-02, 3.28600989e-03,
          6.20000996e-03, 3.77581008e-02, 8.94661993e-02, 7.31601007e-03,
          1.85999996e-03, 3.72000993e-03, 7.37801008e-03, 2.64740996e-02,
          5.30720986e-02, 1.82900000e-02, 2.48000002e-03, 1.85999996e-03,
          2.79001007e-03, 6.26200996e-03, 2.66600996e-02, 5.13980985e-02,
          6.20000996e-03, 1.24000001e-03, 1.86000005e-04, 6.69601001e-03,
          3.16201001e-02, 6.51620999e-02, 1.35779995e-02, 2.04599998e-03,
          1.17800001e-03, 2.82720998e-02, 7.30981007e-02, 5.51800989e-03,
          1.55000004e-03, 6.20001010e-05, 4.40821014e-02, 1.30820004e-02,
          1.36400003e-03, 1.30200002e-03, 6.38600998e-03, 2.23200000e-03,
          3.10000993e-04, 2.04599998e-03, 2.35600001e-03, 4.34001005e-04,
          1.98399997e-03, 1.98400002e-02, 2.41180006e-02, 3.16201011e-03,
          5.14600985e-03, 7.44001009e-03, 3.53400991e-03, 8.06002039e-03,
          2.63500996e-02, 5.39400987e-03, 7.37801008e-03, 3.69521007e-02,
          3.89361009e-02, 3.78200994e-03, 8.43202043e-03, 4.49501015e-02,
          7.09901005e-02, 1.80420000e-02, 5.20800985e-03, 8.24602041e-03,
          3.63941006e-02, 8.64282027e-02, 9.54801962e-03, 1.79799995e-03,
          3.03801009e-03, 9.36201960e-03, 2.56680995e-02, 5.07160984e-02,
          2.00880002e-02, 2.79001007e-03, 2.29400001e-03, 3.16201011e-03,
          7.93602038e-03, 2.70940997e-02, 4.64381017e-02, 8.12202040e-03,
          2.72801006e-03, 1.23999998e-04, 7.75001990e-03, 3.48441005e-02,
          6.35500997e-02, 1.43839996e-02, 2.23200000e-03, 2.16999999e-03,
          2.38080006e-02, 6.57201037e-02, 7.25401007e-03, 1.67400006e-03,
          4.34001005e-04, 4.45161015e-02, 1.40739996e-02, 1.61200005e-03,
          1.79799995e-03, 8.55602045e-03, 1.85999996e-03, 2.47999997e-04,
          3.03801009e-03, 1.92199997e-03, 1.23999998e-04, 2.66601006e-03,
          2.41180006e-02 ]
      - [ 6.95021003e-02, 2.41800002e-03, 3.47200991e-03, 6.13800995e-03,
          5.33200987e-03, 1.05400002e-02, 2.97600999e-02, 3.65800993e-03,
          1.02920001e-02, 3.36041003e-02, 4.81121019e-02, 5.45600988e-03,
          1.02300001e-02, 5.41880988e-02, 8.84741992e-02, 1.66159999e-02,
          4.34001023e-03, 9.73401964e-03, 2.64120996e-02, 8.10341984e-02,
          1.38259996e-02, 2.66601006e-03, 2.54201004e-03, 6.57201000e-03,
          2.43040007e-02, 3.88121009e-02, 1.61819998e-02, 1.85999996e-03,
          1.55000004e-03, 1.85999996e-03, 5.27000986e-03, 2.08320003e-02,
          3.67661007e-02, 6.44800998e-03, 3.53400991e-03, 6.20000996e-04,
          3.16201011e-03, 3.14341001e-02, 5.60480990e-02, 1.27100004e-02,
          2.10799999e-03, 2.79001007e-03, 1.90340001e-02, 5.72260991e-02,
          7.00601004e-03, 2.10799999e-03, 3.10000993e-04, 3.42241004e-02,
          1.22760003e-02, 1.36400003e-03, 1.36400003e-03, 7.50201987e-03,
          3.84400995e-03, 1.86000005e-04, 2.72801006e-03, 3.34800989e-03,
          3.72000999e-04, 3.84400995e-03, 6.95021003e-02, 3.91221009e-02,
          2.54201004e-03, 3.84400995e-03, 7.13001005e-03, 6.07600994e-03,
          1.16560003e-02, 2.79620998e-02, 4.15401021e-03, 1.17800003e-02,
          3.92461009e-02, 5.05920984e-02, 6.26200996e-03, 1.07880002e-02,
          5.57380989e-02, 8.74821991e-02, 1.74840000e-02, 4.52600978e-03,
          1.09120002e-02, 2.97600999e-02, 7.88642019e-02, 1.53139997e-02,
          1.85999996e-03, 2.72801006e-03, 6.82001002e-03, 2.61020996e-02,
          4.02381010e-02, 1.66159999e-02, 1.98399997e-03, 1.67400006e-03,
          2.41800002e-03, 6.20000996e-03, 2.28160005e-02, 3.41621004e-02,
          6.69601001e-03, 4.09201020e-03, 7.44001009e-04, 4.09201020e-03,
          3.31701003e-02, 5.74740991e-02, 1.33920005e-02, 2.29400001e-03,
          2.91401008e-03, 2.09560003e-02, 5.73500991e-02, 8.74202047e-03,
          2.35600001e-03, 3.10000993e-04, 3.10001001e-02, 1.29580004e-02,
          1.24000001e-03, 1.55000004e-03, 7.81201990e-03, 3.78200994e-03,
          3.72000999e-04, 2.66601006e-03, 3.22401011e-03, 4.96000983e-04,
          4.21601022e-03, 3.91221009e-02, 1.69880003e-01, 3.53400991e-03,
          4.03001020e-03, 7.00601004e-03, 6.88201003e-03, 1.12220002e-02,
          2.35600006e-02, 3.90600995e-03, 9.17601958e-03, 3.07521001e-02,
          3.53401005e-02, 5.82800992e-03, 9.85801965e-03, 4.80501018e-02,
          7.70661980e-02, 1.27720004e-02, 4.89800982e-03, 9.92001966e-03,
          2.64120996e-02, 7.30360970e-02, 1.13460002e-02, 2.10799999e-03,
          4.40200977e-03, 7.25401007e-03, 1.74840000e-02, 2.93260999e-02,
          1.28340004e-02, 1.61200005e-03, 1.17800001e-03, 2.23200000e-03,
          6.75801001e-03, 2.13280004e-02, 3.01321000e-02, 5.33200987e-03,
          3.47200991e-03, 6.20000996e-04, 4.34001023e-03, 2.87680998e-02,
          5.05920984e-02, 1.03540001e-02, 1.85999996e-03, 2.85201008e-03,
          2.10180003e-02, 5.10880984e-02, 7.68801989e-03, 1.92199997e-03,
          3.72000999e-04, 2.71560997e-02, 1.06020002e-02, 9.30002017e-04,
          1.30200002e-03, 6.32400997e-03, 2.85201008e-03, 3.10000993e-04,
          2.79001007e-03, 2.85201008e-03, 3.10000993e-04, 3.72000993e-03,
          1.69880003e-01 ]
      - [ 2.98841000e-02, 5.02200983e-03, 5.82800992e-03, 1.00440001e-02,
          4.77400981e-03, 9.17601958e-03, 2.65980996e-02, 3.59600992e-03,
          7.87402038e-03, 2.33120006e-02, 2.87060998e-02, 4.21601022e-03,
          9.05201957e-03, 6.13180995e-02, 9.62242037e-02, 1.25860004e-02,
          5.33200987e-03, 8.12202040e-03, 2.62880996e-02, 1.02237999e-01,
          1.12840002e-02, 1.79799995e-03, 4.15401021e-03, 8.37002043e-03,
          2.77140997e-02, 2.79620998e-02, 1.17800003e-02, 1.24000001e-03,
          1.92199997e-03, 3.53400991e-03, 9.61001962e-03, 2.32500006e-02,
          4.45781015e-02, 6.26200996e-03, 2.54201004e-03, 1.23999998e-04,
          7.75001990e-03, 4.05481011e-02, 6.03260994e-02, 1.44459996e-02,
          2.04599998e-03, 2.29400001e-03, 2.86440998e-02, 6.34260997e-02,
          9.30001959e-03, 2.16999999e-03, 2.47999997e-04, 4.43921015e-02,
          1.40739996e-02, 1.92199997e-03, 1.36400003e-03, 5.76600991e-03,
          2.97601009e-03, 1.86000005e-04, 1.92199997e-03, 2.66601006e-03,
          1.23999998e-04, 2.85201008e-03, 2.98841000e-02, 2.54820995e-02,
          4.83600982e-03, 3.72000993e-03, 7.00601004e-03, 3.47200991e-03,
          7.44001009e-03, 2.65980996e-02, 2.41800002e-03, 5.64200990e-03,
          2.54820995e-02, 3.14961001e-02, 3.90600995e-03, 6.01400994e-03,
          6.15660995e-02, 1.09182000e-01, 1.03540001e-02, 2.79001007e-03,
          7.00601004e-03, 2.53580995e-02, 1.13770001e-01, 6.75801001e-03,
          8.68002011e-04, 2.79001007e-03, 7.13001005e-03, 2.88920999e-02,
          2.80240998e-02, 1.00440001e-02, 1.24000001e-03, 1.42600003e-03,
          2.10799999e-03, 7.37801008e-03, 2.59160995e-02, 5.02200983e-02,
          4.52600978e-03, 1.36400003e-03, 6.20001010e-05, 6.20000996e-03,
          4.26561013e-02, 7.40280971e-02, 1.09740002e-02, 1.36400003e-03,
          1.73599995e-03, 2.79000998e-02, 7.80581981e-02, 5.58000989e-03,
          5.58000989e-04, 2.47999997e-04, 4.73681018e-02, 1.15320003e-02,
          6.20000996e-04, 1.36400003e-03, 5.51800989e-03, 1.42600003e-03,
          1.23999998e-04, 2.10799999e-03, 1.61200005e-03, 2.47999997e-04,
          1.05399999e-03, 2.54820995e-02, 2.25060005e-02, 4.15401021e-03,
          3.90600995e-03, 7.81201990e-03, 3.10001010e-03, 6.32400997e-03,
          2.45520007e-02, 1.61200005e-03, 5.76600991e-03, 2.33120006e-02,
          2.77140997e-02, 3.28600989e-03, 6.82001002e-03, 6.30540997e-02,
          1.05648004e-01, 1.07880002e-02, 3.34800989e-03, 6.88201003e-03,
          2.77140997e-02, 1.14762001e-01, 9.92001966e-03, 4.96000983e-04,
          3.28600989e-03, 7.25401007e-03, 2.43660007e-02, 3.08141001e-02,
          9.79601964e-03, 9.92001966e-04, 1.17800001e-03, 2.04599998e-03,
          7.25401007e-03, 2.70940997e-02, 4.71201017e-02, 4.77400981e-03,
          1.67400006e-03, 6.20001010e-05, 6.57201000e-03, 4.74921018e-02,
          7.69421980e-02, 1.19660003e-02, 9.92001966e-04, 1.48800004e-03,
          2.72800997e-02, 8.52501988e-02, 7.25401007e-03, 9.30002017e-04,
          2.47999997e-04, 4.27181013e-02, 1.01680001e-02, 8.68002011e-04,
          1.24000001e-03, 4.40200977e-03, 1.36400003e-03, 6.20001010e-05,
          2.23200000e-03, 1.48800004e-03, 1.23999998e-04, 1.30200002e-03,
          2.25060005e-02 ]
      - [ 3.34801003e-02, 2.72801006e-03, 1.01680001e-02, 7.19201006e-03,
          2.72801006e-03, 6.38600998e-03, 2.91400999e-02, 3.47200991e-03,
          4.96000983e-03, 1.83520000e-02, 3.40381004e-02, 5.27000986e-03,
          7.75001990e-03, 6.86960965e-02, 1.38631999e-01, 1.10360002e-02,
          9.05201957e-03, 7.50201987e-03, 2.08320003e-02, 8.74821991e-02,
          9.98201966e-03, 1.92199997e-03, 2.54201004e-03, 5.02200983e-03,
          2.31260005e-02, 3.75101008e-02, 1.23380003e-02, 1.36400003e-03,
          2.29400001e-03, 2.85201008e-03, 5.33200987e-03, 1.92200001e-02,
          4.42061014e-02, 5.76600991e-03, 2.23200000e-03, 1.86000005e-04,
          4.27801022e-03, 2.31260005e-02, 5.84660992e-02, 1.22760003e-02,
          2.29400001e-03, 1.12840002e-02, 1.66779999e-02, 7.13621005e-02,
          7.37801008e-03, 1.11600000e-03, 7.44001009e-04, 3.42861004e-02,
          1.02300001e-02, 1.79799995e-03, 1.98399997e-03, 4.21601022e-03,
          2.54201004e-03, 8.06002005e-04, 1.73599995e-03, 8.24602041e-03,
          4.34001005e-04, 5.27000986e-03, 3.34801003e-02, 3.01321000e-02,
          2.66601006e-03, 1.04160002e-02, 6.94401003e-03, 3.10001010e-03,
          5.95200993e-03, 2.90160999e-02, 3.47200991e-03, 4.65000980e-03,
          2.03980003e-02, 3.32321003e-02, 4.65000980e-03, 6.57201000e-03,
          6.70840964e-02, 1.37081996e-01, 1.00440001e-02, 9.23801959e-03,
          6.63401000e-03, 2.13280004e-02, 8.83501992e-02, 9.92001966e-03,
          1.85999996e-03, 3.28600989e-03, 5.20800985e-03, 2.44280007e-02,
          3.56501006e-02, 1.10360002e-02, 1.17800001e-03, 2.16999999e-03,
          2.79001007e-03, 5.45600988e-03, 2.05220003e-02, 4.37721014e-02,
          4.77400981e-03, 2.60401005e-03, 1.86000005e-04, 5.58000989e-03,
          2.50480995e-02, 5.85280992e-02, 1.25860004e-02, 2.16999999e-03,
          1.10360002e-02, 2.00880002e-02, 7.45240971e-02, 7.25401007e-03,
          1.11600000e-03, 7.44001009e-04, 3.29221003e-02, 1.04160002e-02,
          1.98399997e-03, 2.29400001e-03, 4.34001023e-03, 2.91401008e-03,
          6.20000996e-04, 1.42600003e-03, 8.06002039e-03, 5.58000989e-04,
          4.89800982e-03, 3.01321000e-02, 4.34621014e-02, 3.34800989e-03,
          1.12840002e-02, 7.06801005e-03, 2.91401008e-03, 5.58000989e-03,
          2.66600996e-02, 3.03801009e-03, 5.14600985e-03, 1.96540002e-02,
          3.00701000e-02, 4.40200977e-03, 5.70400991e-03, 6.37980998e-02,
          1.33671999e-01, 1.02300001e-02, 8.92801955e-03, 6.26200996e-03,
          2.03980003e-02, 8.20882022e-02, 1.04160002e-02, 1.48800004e-03,
          3.16201011e-03, 6.32400997e-03, 2.49860007e-02, 2.88920999e-02,
          1.09740002e-02, 1.17800001e-03, 1.48800004e-03, 3.90600995e-03,
          6.38600998e-03, 2.01500002e-02, 4.60041016e-02, 4.40200977e-03,
          2.23200000e-03, 2.47999997e-04, 5.14600985e-03, 2.77140997e-02,
          6.24960996e-02, 1.37019996e-02, 1.85999996e-03, 9.36201960e-03,
          1.94680002e-02, 7.60741979e-02, 6.94401003e-03, 1.55000004e-03,
          7.44001009e-04, 3.47201005e-02, 1.09740002e-02, 2.10799999e-03,
          2.35600001e-03, 4.09201020e-03, 2.54201004e-03, 4.96000983e-04,
          1.73599995e-03, 7.68801989e-03, 3.10000993e-04, 4.09201020e-03,
          4.34621014e-02 ]
      - [ 3.19921002e-02, 2.72801006e-03, 9.73401964e-03, 6.94401003e-03,
          3.16201011e-03, 6.01400994e-03, 2.46140007e-02, 3.34800989e-03,
          6.01400994e-03, 1.94060002e-02, 3.26121002e-02, 4.09201020e-03,
          7.87402038e-03, 6.92541003e-02, 1.38321996e-01, 1.34540005e-02,
          1.04160002e-02, 7.75001990e-03, 1.86620001e-02, 9.44882035e-02,
          1.09740002e-02, 1.98399997e-03, 2.48000002e-03, 6.20000996e-03,
          2.56060995e-02, 3.07521001e-02, 1.18420003e-02, 2.10799999e-03,
          1.85999996e-03, 2.72801006e-03, 5.33200987e-03, 1.77320000e-02,
          4.36481014e-02, 5.14600985e-03, 2.79001007e-03, 6.20000996e-04,
          4.40200977e-03, 2.50480995e-02, 5.90860993e-02, 1.25240004e-02,
          2.79001007e-03, 9.36201960e-03, 1.59339998e-02, 7.08661005e-02,
          7.50201987e-03, 2.23200000e-03, 4.96000983e-04, 3.39141004e-02,
          1.07260002e-02, 1.92199997e-03, 1.98399997e-03, 3.84400995e-03,
          3.22401011e-03, 4.96000983e-04, 2.41800002e-03, 9.61001962e-03,
          3.10000993e-04, 4.65000980e-03, 3.19921002e-02, 2.66600996e-02,
          2.29400001e-03, 1.03540001e-02, 7.62601988e-03, 2.35600001e-03,
          5.82800992e-03, 2.57920995e-02, 3.22401011e-03, 5.51800989e-03,
          1.99640002e-02, 3.35421003e-02, 4.46400978e-03, 7.56401988e-03,
          6.77661002e-02, 1.36399999e-01, 1.23380003e-02, 1.01060001e-02,
          7.81201990e-03, 1.92820001e-02, 9.43021998e-02, 1.04160002e-02,
          1.92199997e-03, 3.10001010e-03, 6.51000999e-03, 2.41180006e-02,
          3.21781002e-02, 1.09120002e-02, 2.16999999e-03, 1.48800004e-03,
          2.29400001e-03, 5.39400987e-03, 1.84140000e-02, 4.47021015e-02,
          4.77400981e-03, 2.97601009e-03, 3.72000999e-04, 4.46400978e-03,
          2.77140997e-02, 5.82800992e-02, 1.22760003e-02, 3.10001010e-03,
          8.86601955e-03, 1.87240001e-02, 7.33461007e-02, 7.81201990e-03,
          1.85999996e-03, 7.44001009e-04, 3.50921005e-02, 1.03540001e-02,
          1.73599995e-03, 1.79799995e-03, 3.59600992e-03, 3.84400995e-03,
          4.96000983e-04, 2.35600001e-03, 9.11401957e-03, 4.96000983e-04,
          4.46400978e-03, 2.66600996e-02, 4.24081013e-02, 2.54201004e-03,
          1.01680001e-02, 8.99001956e-03, 2.16999999e-03, 5.82800992e-03,
          2.38700006e-02, 3.22401011e-03, 5.02200983e-03, 2.00260002e-02,
          2.98841000e-02, 3.90600995e-03, 6.44800998e-03, 6.60921037e-02,
          1.32804006e-01, 1.09740002e-02, 1.01060001e-02, 7.19201006e-03,
          1.71739999e-02, 8.82882029e-02, 1.12840002e-02, 1.11600000e-03,
          2.97601009e-03, 6.26200996e-03, 2.44280007e-02, 2.73420997e-02,
          9.73401964e-03, 1.85999996e-03, 1.36400003e-03, 2.79001007e-03,
          5.64200990e-03, 2.13280004e-02, 4.37721014e-02, 5.64200990e-03,
          2.91401008e-03, 4.96000983e-04, 4.71200980e-03, 2.79620998e-02,
          5.95820993e-02, 1.30200004e-02, 2.97601009e-03, 8.61802045e-03,
          1.90960001e-02, 7.52682015e-02, 8.61802045e-03, 2.16999999e-03,
          4.96000983e-04, 3.75101008e-02, 1.12840002e-02, 1.73599995e-03,
